{
    "symmetric_weights_decompressor_q_proj_weight_0": [
        [
            [
                -0.0135650634765625
            ],
            [
                -0.014251708984375
            ]
        ],
        [
            [
                0.015411376953125
            ],
            [
                -0.01557159423828125
            ]
        ],
        [
            [
                -0.01427459716796875
            ],
            [
                -0.01519012451171875
            ]
        ],
        [
            [
                0.01224517822265625
            ],
            [
                0.01528167724609375
            ]
        ],
        [
            [
                0.01348876953125
            ],
            [
                -0.01556396484375
            ]
        ],
        [
            [
                0.01401519775390625
            ],
            [
                0.0153350830078125
            ]
        ],
        [
            [
                0.01560211181640625
            ],
            [
                0.01523590087890625
            ]
        ],
        [
            [
                0.0160675048828125
            ],
            [
                -0.0149993896484375
            ]
        ],
        [
            [
                -0.01445770263671875
            ],
            [
                0.01251220703125
            ]
        ],
        [
            [
                -0.0155487060546875
            ],
            [
                0.0126495361328125
            ]
        ],
        [
            [
                -0.01306915283203125
            ],
            [
                -0.01422882080078125
            ]
        ],
        [
            [
                -0.0154571533203125
            ],
            [
                -0.015594482421875
            ]
        ],
        [
            [
                -0.01308441162109375
            ],
            [
                -0.01392364501953125
            ]
        ],
        [
            [
                -0.01512908935546875
            ],
            [
                0.01303863525390625
            ]
        ],
        [
            [
                -0.0134124755859375
            ],
            [
                -0.0130462646484375
            ]
        ],
        [
            [
                0.01467132568359375
            ],
            [
                0.01568603515625
            ]
        ],
        [
            [
                -0.01470184326171875
            ],
            [
                0.0147705078125
            ]
        ],
        [
            [
                -0.01477813720703125
            ],
            [
                -0.01468658447265625
            ]
        ],
        [
            [
                -0.0128021240234375
            ],
            [
                0.0122833251953125
            ]
        ],
        [
            [
                -0.0158233642578125
            ],
            [
                0.0131378173828125
            ]
        ],
        [
            [
                -0.01537322998046875
            ],
            [
                -0.01543426513671875
            ]
        ],
        [
            [
                -0.01548004150390625
            ],
            [
                0.01435089111328125
            ]
        ],
        [
            [
                -0.0130462646484375
            ],
            [
                0.01294708251953125
            ]
        ],
        [
            [
                0.01348876953125
            ],
            [
                0.01446533203125
            ]
        ],
        [
            [
                -0.0157470703125
            ],
            [
                -0.014892578125
            ]
        ],
        [
            [
                0.01482391357421875
            ],
            [
                -0.01473236083984375
            ]
        ],
        [
            [
                0.0155029296875
            ],
            [
                0.0135040283203125
            ]
        ],
        [
            [
                0.01456451416015625
            ],
            [
                -0.016326904296875
            ]
        ],
        [
            [
                -0.01509857177734375
            ],
            [
                -0.012847900390625
            ]
        ],
        [
            [
                -0.0152130126953125
            ],
            [
                0.01459503173828125
            ]
        ],
        [
            [
                -0.0153350830078125
            ],
            [
                -0.01287078857421875
            ]
        ],
        [
            [
                0.0136871337890625
            ],
            [
                0.014801025390625
            ]
        ],
        [
            [
                0.01520538330078125
            ],
            [
                -0.01514434814453125
            ]
        ],
        [
            [
                -0.01471710205078125
            ],
            [
                0.0155792236328125
            ]
        ],
        [
            [
                -0.01485443115234375
            ],
            [
                0.0147857666015625
            ]
        ],
        [
            [
                0.01512908935546875
            ],
            [
                -0.01381683349609375
            ]
        ],
        [
            [
                -0.015838623046875
            ],
            [
                -0.01444244384765625
            ]
        ],
        [
            [
                -0.0146636962890625
            ],
            [
                -0.01299285888671875
            ]
        ],
        [
            [
                -0.01495361328125
            ],
            [
                -0.014801025390625
            ]
        ],
        [
            [
                -0.01396942138671875
            ],
            [
                0.0134124755859375
            ]
        ],
        [
            [
                -0.01490020751953125
            ],
            [
                0.015045166015625
            ]
        ],
        [
            [
                -0.01543426513671875
            ],
            [
                0.01514434814453125
            ]
        ],
        [
            [
                0.01428985595703125
            ],
            [
                0.0141754150390625
            ]
        ],
        [
            [
                0.014923095703125
            ],
            [
                0.01470947265625
            ]
        ],
        [
            [
                -0.01654052734375
            ],
            [
                0.01470947265625
            ]
        ],
        [
            [
                0.0150299072265625
            ],
            [
                0.0132293701171875
            ]
        ],
        [
            [
                -0.0144500732421875
            ],
            [
                -0.014556884765625
            ]
        ],
        [
            [
                -0.01354217529296875
            ],
            [
                -0.01436614990234375
            ]
        ],
        [
            [
                0.01250457763671875
            ],
            [
                0.014495849609375
            ]
        ],
        [
            [
                -0.01361846923828125
            ],
            [
                -0.01445770263671875
            ]
        ],
        [
            [
                -0.0148162841796875
            ],
            [
                0.01213836669921875
            ]
        ],
        [
            [
                -0.0125274658203125
            ],
            [
                -0.0152587890625
            ]
        ],
        [
            [
                -0.01308441162109375
            ],
            [
                0.01410675048828125
            ]
        ],
        [
            [
                -0.0150146484375
            ],
            [
                0.01324462890625
            ]
        ],
        [
            [
                -0.016021728515625
            ],
            [
                0.015289306640625
            ]
        ],
        [
            [
                -0.0143280029296875
            ],
            [
                -0.0139617919921875
            ]
        ],
        [
            [
                -0.0147247314453125
            ],
            [
                0.0161590576171875
            ]
        ],
        [
            [
                -0.0119476318359375
            ],
            [
                0.0154571533203125
            ]
        ],
        [
            [
                -0.01476287841796875
            ],
            [
                -0.0137176513671875
            ]
        ],
        [
            [
                0.01558685302734375
            ],
            [
                0.013427734375
            ]
        ],
        [
            [
                -0.0167694091796875
            ],
            [
                0.01517486572265625
            ]
        ],
        [
            [
                0.01235198974609375
            ],
            [
                -0.01605224609375
            ]
        ],
        [
            [
                0.015960693359375
            ],
            [
                -0.015167236328125
            ]
        ],
        [
            [
                0.01517486572265625
            ],
            [
                0.0162200927734375
            ]
        ]
    ],
    "symmetric_weights_decompressor_k_proj_weight_0": [
        [
            [
                0.0150604248046875
            ],
            [
                -0.0138702392578125
            ]
        ],
        [
            [
                -0.01486968994140625
            ],
            [
                -0.01424407958984375
            ]
        ],
        [
            [
                0.01526641845703125
            ],
            [
                -0.0126800537109375
            ]
        ],
        [
            [
                -0.01436614990234375
            ],
            [
                -0.0157012939453125
            ]
        ],
        [
            [
                -0.01470947265625
            ],
            [
                0.013916015625
            ]
        ],
        [
            [
                -0.01371002197265625
            ],
            [
                -0.01558685302734375
            ]
        ],
        [
            [
                0.01265716552734375
            ],
            [
                0.01399993896484375
            ]
        ],
        [
            [
                -0.01520538330078125
            ],
            [
                -0.01537322998046875
            ]
        ],
        [
            [
                0.01538848876953125
            ],
            [
                0.0160064697265625
            ]
        ],
        [
            [
                -0.01537322998046875
            ],
            [
                -0.01198577880859375
            ]
        ],
        [
            [
                -0.01551055908203125
            ],
            [
                -0.01419830322265625
            ]
        ],
        [
            [
                -0.01544189453125
            ],
            [
                -0.0127410888671875
            ]
        ],
        [
            [
                0.014373779296875
            ],
            [
                -0.01462554931640625
            ]
        ],
        [
            [
                0.01326751708984375
            ],
            [
                -0.015716552734375
            ]
        ],
        [
            [
                -0.01415252685546875
            ],
            [
                -0.01483917236328125
            ]
        ],
        [
            [
                -0.01505279541015625
            ],
            [
                0.0154571533203125
            ]
        ],
        [
            [
                0.01538848876953125
            ],
            [
                -0.016021728515625
            ]
        ],
        [
            [
                -0.013916015625
            ],
            [
                -0.01514434814453125
            ]
        ],
        [
            [
                0.01401519775390625
            ],
            [
                -0.01239776611328125
            ]
        ],
        [
            [
                -0.01540374755859375
            ],
            [
                -0.0133209228515625
            ]
        ],
        [
            [
                0.014617919921875
            ],
            [
                0.01727294921875
            ]
        ],
        [
            [
                0.0156707763671875
            ],
            [
                -0.0155792236328125
            ]
        ],
        [
            [
                0.01384735107421875
            ],
            [
                0.01262664794921875
            ]
        ],
        [
            [
                -0.0143890380859375
            ],
            [
                0.015106201171875
            ]
        ],
        [
            [
                0.0154571533203125
            ],
            [
                -0.01403045654296875
            ]
        ],
        [
            [
                0.0149993896484375
            ],
            [
                0.012847900390625
            ]
        ],
        [
            [
                0.01552581787109375
            ],
            [
                -0.01554107666015625
            ]
        ],
        [
            [
                0.01503753662109375
            ],
            [
                0.01519775390625
            ]
        ],
        [
            [
                0.0144195556640625
            ],
            [
                -0.01325225830078125
            ]
        ],
        [
            [
                -0.0159454345703125
            ],
            [
                -0.01555633544921875
            ]
        ],
        [
            [
                -0.01416015625
            ],
            [
                -0.01580810546875
            ]
        ],
        [
            [
                -0.01446533203125
            ],
            [
                -0.01375579833984375
            ]
        ],
        [
            [
                0.01214599609375
            ],
            [
                -0.0137786865234375
            ]
        ],
        [
            [
                0.01497650146484375
            ],
            [
                0.0144805908203125
            ]
        ],
        [
            [
                -0.01474761962890625
            ],
            [
                -0.0155181884765625
            ]
        ],
        [
            [
                -0.01508331298828125
            ],
            [
                -0.01496124267578125
            ]
        ],
        [
            [
                -0.01544189453125
            ],
            [
                0.014678955078125
            ]
        ],
        [
            [
                -0.01329803466796875
            ],
            [
                -0.0157012939453125
            ]
        ],
        [
            [
                0.01535797119140625
            ],
            [
                -0.0161590576171875
            ]
        ],
        [
            [
                0.01480865478515625
            ],
            [
                -0.01407623291015625
            ]
        ],
        [
            [
                0.01212310791015625
            ],
            [
                0.01406097412109375
            ]
        ],
        [
            [
                0.012939453125
            ],
            [
                0.01445770263671875
            ]
        ],
        [
            [
                0.01476287841796875
            ],
            [
                -0.01544189453125
            ]
        ],
        [
            [
                0.0135650634765625
            ],
            [
                0.01358795166015625
            ]
        ],
        [
            [
                -0.0150299072265625
            ],
            [
                -0.014190673828125
            ]
        ],
        [
            [
                0.01522064208984375
            ],
            [
                0.01520538330078125
            ]
        ],
        [
            [
                0.0146942138671875
            ],
            [
                -0.01531982421875
            ]
        ],
        [
            [
                0.01305389404296875
            ],
            [
                0.0139312744140625
            ]
        ],
        [
            [
                0.01507568359375
            ],
            [
                -0.01461029052734375
            ]
        ],
        [
            [
                -0.015899658203125
            ],
            [
                0.01421356201171875
            ]
        ],
        [
            [
                0.01385498046875
            ],
            [
                0.01284027099609375
            ]
        ],
        [
            [
                0.01535797119140625
            ],
            [
                0.0152740478515625
            ]
        ],
        [
            [
                -0.0144805908203125
            ],
            [
                0.01386260986328125
            ]
        ],
        [
            [
                0.0132598876953125
            ],
            [
                -0.0147705078125
            ]
        ],
        [
            [
                -0.01397705078125
            ],
            [
                0.01549530029296875
            ]
        ],
        [
            [
                0.0145111083984375
            ],
            [
                -0.0167694091796875
            ]
        ],
        [
            [
                -0.0148773193359375
            ],
            [
                0.01532745361328125
            ]
        ],
        [
            [
                -0.0145263671875
            ],
            [
                -0.01387786865234375
            ]
        ],
        [
            [
                0.01473236083984375
            ],
            [
                0.016326904296875
            ]
        ],
        [
            [
                -0.01299285888671875
            ],
            [
                0.0149993896484375
            ]
        ],
        [
            [
                0.013214111328125
            ],
            [
                -0.01541900634765625
            ]
        ],
        [
            [
                -0.01316070556640625
            ],
            [
                0.0142822265625
            ]
        ],
        [
            [
                0.01425933837890625
            ],
            [
                -0.01212310791015625
            ]
        ],
        [
            [
                0.0168914794921875
            ],
            [
                -0.01407623291015625
            ]
        ]
    ],
    "symmetric_weights_decompressor_v_proj_weight_0": [
        [
            [
                -0.0145721435546875
            ],
            [
                -0.01470184326171875
            ]
        ],
        [
            [
                -0.01517486572265625
            ],
            [
                -0.01496124267578125
            ]
        ],
        [
            [
                0.013580322265625
            ],
            [
                -0.0135040283203125
            ]
        ],
        [
            [
                0.0142669677734375
            ],
            [
                0.014251708984375
            ]
        ],
        [
            [
                0.0146942138671875
            ],
            [
                0.0164337158203125
            ]
        ],
        [
            [
                -0.0142364501953125
            ],
            [
                -0.0138397216796875
            ]
        ],
        [
            [
                -0.0160064697265625
            ],
            [
                0.01447296142578125
            ]
        ],
        [
            [
                -0.01551055908203125
            ],
            [
                -0.013824462890625
            ]
        ],
        [
            [
                -0.0135650634765625
            ],
            [
                0.0128326416015625
            ]
        ],
        [
            [
                -0.01386260986328125
            ],
            [
                -0.0139312744140625
            ]
        ],
        [
            [
                -0.0142059326171875
            ],
            [
                0.01422119140625
            ]
        ],
        [
            [
                -0.01546478271484375
            ],
            [
                -0.0157318115234375
            ]
        ],
        [
            [
                -0.01416015625
            ],
            [
                -0.01371002197265625
            ]
        ],
        [
            [
                -0.0151519775390625
            ],
            [
                0.0147857666015625
            ]
        ],
        [
            [
                -0.0164031982421875
            ],
            [
                -0.01531982421875
            ]
        ],
        [
            [
                -0.01323699951171875
            ],
            [
                -0.01331329345703125
            ]
        ],
        [
            [
                0.0156097412109375
            ],
            [
                0.01561737060546875
            ]
        ],
        [
            [
                0.0145721435546875
            ],
            [
                0.0152587890625
            ]
        ],
        [
            [
                0.01342010498046875
            ],
            [
                0.013824462890625
            ]
        ],
        [
            [
                0.01375579833984375
            ],
            [
                -0.012847900390625
            ]
        ],
        [
            [
                0.015960693359375
            ],
            [
                0.0157623291015625
            ]
        ],
        [
            [
                0.01479339599609375
            ],
            [
                0.012969970703125
            ]
        ],
        [
            [
                0.0158233642578125
            ],
            [
                -0.0147552490234375
            ]
        ],
        [
            [
                0.0137481689453125
            ],
            [
                0.01409912109375
            ]
        ],
        [
            [
                -0.01373291015625
            ],
            [
                -0.01508331298828125
            ]
        ],
        [
            [
                -0.01456451416015625
            ],
            [
                0.0151824951171875
            ]
        ],
        [
            [
                -0.01549530029296875
            ],
            [
                0.0151519775390625
            ]
        ],
        [
            [
                0.012725830078125
            ],
            [
                -0.01461029052734375
            ]
        ],
        [
            [
                -0.01531982421875
            ],
            [
                0.0142974853515625
            ]
        ],
        [
            [
                0.01558685302734375
            ],
            [
                0.01357269287109375
            ]
        ],
        [
            [
                -0.01500701904296875
            ],
            [
                -0.0123291015625
            ]
        ],
        [
            [
                -0.01526641845703125
            ],
            [
                0.0153961181640625
            ]
        ],
        [
            [
                0.01474761962890625
            ],
            [
                0.0154876708984375
            ]
        ],
        [
            [
                -0.01513671875
            ],
            [
                0.015350341796875
            ]
        ],
        [
            [
                0.0153961181640625
            ],
            [
                0.01528167724609375
            ]
        ],
        [
            [
                0.0152435302734375
            ],
            [
                0.0153656005859375
            ]
        ],
        [
            [
                0.0149993896484375
            ],
            [
                -0.01336669921875
            ]
        ],
        [
            [
                0.01336669921875
            ],
            [
                0.0147857666015625
            ]
        ],
        [
            [
                0.01328277587890625
            ],
            [
                -0.0137176513671875
            ]
        ],
        [
            [
                -0.01544952392578125
            ],
            [
                0.01535797119140625
            ]
        ],
        [
            [
                0.0138702392578125
            ],
            [
                -0.01288604736328125
            ]
        ],
        [
            [
                0.01401519775390625
            ],
            [
                -0.0158843994140625
            ]
        ],
        [
            [
                0.01477813720703125
            ],
            [
                0.01238250732421875
            ]
        ],
        [
            [
                0.01261138916015625
            ],
            [
                -0.01371002197265625
            ]
        ],
        [
            [
                0.01448822021484375
            ],
            [
                -0.0145416259765625
            ]
        ],
        [
            [
                0.01453399658203125
            ],
            [
                0.0154571533203125
            ]
        ],
        [
            [
                0.014251708984375
            ],
            [
                -0.0150604248046875
            ]
        ],
        [
            [
                -0.0154266357421875
            ],
            [
                -0.0140228271484375
            ]
        ],
        [
            [
                0.0145721435546875
            ],
            [
                0.015472412109375
            ]
        ],
        [
            [
                0.01425933837890625
            ],
            [
                -0.01351165771484375
            ]
        ],
        [
            [
                -0.01450347900390625
            ],
            [
                -0.0159759521484375
            ]
        ],
        [
            [
                -0.01361083984375
            ],
            [
                0.01483917236328125
            ]
        ],
        [
            [
                -0.01447296142578125
            ],
            [
                0.01418304443359375
            ]
        ],
        [
            [
                -0.015106201171875
            ],
            [
                0.0139923095703125
            ]
        ],
        [
            [
                -0.014068603515625
            ],
            [
                0.01320648193359375
            ]
        ],
        [
            [
                -0.0155181884765625
            ],
            [
                0.01560211181640625
            ]
        ],
        [
            [
                -0.0155792236328125
            ],
            [
                -0.0147247314453125
            ]
        ],
        [
            [
                0.0147247314453125
            ],
            [
                0.0133209228515625
            ]
        ],
        [
            [
                0.01415252685546875
            ],
            [
                0.0130615234375
            ]
        ],
        [
            [
                -0.01419830322265625
            ],
            [
                -0.014251708984375
            ]
        ],
        [
            [
                -0.0134124755859375
            ],
            [
                0.01519775390625
            ]
        ],
        [
            [
                0.01476287841796875
            ],
            [
                0.0138092041015625
            ]
        ],
        [
            [
                -0.0151824951171875
            ],
            [
                0.01494598388671875
            ]
        ],
        [
            [
                0.015106201171875
            ],
            [
                0.01279449462890625
            ]
        ]
    ],
    "symmetric_weights_decompressor_o_proj_weight_0": [
        [
            [
                0.015625
            ],
            [
                0.014495849609375
            ]
        ],
        [
            [
                -0.01404571533203125
            ],
            [
                -0.0152130126953125
            ]
        ],
        [
            [
                -0.01512908935546875
            ],
            [
                0.0160369873046875
            ]
        ],
        [
            [
                0.01451873779296875
            ],
            [
                -0.0155181884765625
            ]
        ],
        [
            [
                -0.01464080810546875
            ],
            [
                -0.0139007568359375
            ]
        ],
        [
            [
                -0.0123138427734375
            ],
            [
                0.01412200927734375
            ]
        ],
        [
            [
                -0.01317596435546875
            ],
            [
                0.0151824951171875
            ]
        ],
        [
            [
                -0.01235198974609375
            ],
            [
                -0.0142059326171875
            ]
        ],
        [
            [
                -0.0145263671875
            ],
            [
                -0.0148162841796875
            ]
        ],
        [
            [
                0.01427459716796875
            ],
            [
                -0.01490020751953125
            ]
        ],
        [
            [
                0.01490020751953125
            ],
            [
                0.01303863525390625
            ]
        ],
        [
            [
                0.0155029296875
            ],
            [
                -0.013946533203125
            ]
        ],
        [
            [
                0.01409149169921875
            ],
            [
                -0.01322174072265625
            ]
        ],
        [
            [
                0.013427734375
            ],
            [
                0.0127716064453125
            ]
        ],
        [
            [
                0.0142669677734375
            ],
            [
                0.01432037353515625
            ]
        ],
        [
            [
                -0.01528167724609375
            ],
            [
                0.01529693603515625
            ]
        ],
        [
            [
                0.01393890380859375
            ],
            [
                -0.01446533203125
            ]
        ],
        [
            [
                -0.01214599609375
            ],
            [
                -0.01450347900390625
            ]
        ],
        [
            [
                0.013275146484375
            ],
            [
                -0.01328277587890625
            ]
        ],
        [
            [
                -0.01528167724609375
            ],
            [
                -0.01406097412109375
            ]
        ],
        [
            [
                -0.01247406005859375
            ],
            [
                -0.0160064697265625
            ]
        ],
        [
            [
                -0.01490020751953125
            ],
            [
                -0.01470184326171875
            ]
        ],
        [
            [
                -0.01491546630859375
            ],
            [
                -0.013702392578125
            ]
        ],
        [
            [
                -0.0145721435546875
            ],
            [
                0.01506805419921875
            ]
        ],
        [
            [
                -0.0150146484375
            ],
            [
                0.015380859375
            ]
        ],
        [
            [
                -0.0146484375
            ],
            [
                0.013946533203125
            ]
        ],
        [
            [
                0.0121917724609375
            ],
            [
                0.01367950439453125
            ]
        ],
        [
            [
                -0.01552581787109375
            ],
            [
                -0.015228271484375
            ]
        ],
        [
            [
                0.0135650634765625
            ],
            [
                -0.01288604736328125
            ]
        ],
        [
            [
                -0.015869140625
            ],
            [
                0.01409912109375
            ]
        ],
        [
            [
                -0.013946533203125
            ],
            [
                -0.0148162841796875
            ]
        ],
        [
            [
                0.01346588134765625
            ],
            [
                -0.015533447265625
            ]
        ],
        [
            [
                0.01334381103515625
            ],
            [
                -0.0154571533203125
            ]
        ],
        [
            [
                -0.01387786865234375
            ],
            [
                -0.0156707763671875
            ]
        ],
        [
            [
                0.0160675048828125
            ],
            [
                -0.0134429931640625
            ]
        ],
        [
            [
                0.0123748779296875
            ],
            [
                -0.01427459716796875
            ]
        ],
        [
            [
                -0.0137939453125
            ],
            [
                0.01299285888671875
            ]
        ],
        [
            [
                -0.015289306640625
            ],
            [
                -0.01548004150390625
            ]
        ],
        [
            [
                0.0142059326171875
            ],
            [
                0.0158233642578125
            ]
        ],
        [
            [
                -0.01528167724609375
            ],
            [
                -0.013824462890625
            ]
        ],
        [
            [
                -0.01453399658203125
            ],
            [
                -0.0151519775390625
            ]
        ],
        [
            [
                -0.01526641845703125
            ],
            [
                0.0164337158203125
            ]
        ],
        [
            [
                0.01546478271484375
            ],
            [
                -0.01494598388671875
            ]
        ],
        [
            [
                -0.01458740234375
            ],
            [
                -0.01313018798828125
            ]
        ],
        [
            [
                -0.0141448974609375
            ],
            [
                -0.0145721435546875
            ]
        ],
        [
            [
                -0.0144500732421875
            ],
            [
                -0.012664794921875
            ]
        ],
        [
            [
                0.0151824951171875
            ],
            [
                0.0142822265625
            ]
        ],
        [
            [
                0.01434326171875
            ],
            [
                -0.0160675048828125
            ]
        ],
        [
            [
                0.01505279541015625
            ],
            [
                -0.0137939453125
            ]
        ],
        [
            [
                0.01270294189453125
            ],
            [
                -0.0133056640625
            ]
        ],
        [
            [
                -0.01343536376953125
            ],
            [
                -0.01441192626953125
            ]
        ],
        [
            [
                0.0150146484375
            ],
            [
                0.01453399658203125
            ]
        ],
        [
            [
                -0.016143798828125
            ],
            [
                -0.01445770263671875
            ]
        ],
        [
            [
                -0.0134735107421875
            ],
            [
                0.01480865478515625
            ]
        ],
        [
            [
                -0.0162506103515625
            ],
            [
                0.0152130126953125
            ]
        ],
        [
            [
                -0.01522064208984375
            ],
            [
                -0.01541900634765625
            ]
        ],
        [
            [
                -0.01448822021484375
            ],
            [
                0.01557159423828125
            ]
        ],
        [
            [
                -0.01395416259765625
            ],
            [
                0.01319122314453125
            ]
        ],
        [
            [
                -0.0153350830078125
            ],
            [
                -0.01532745361328125
            ]
        ],
        [
            [
                0.016265869140625
            ],
            [
                -0.0161285400390625
            ]
        ],
        [
            [
                -0.0131988525390625
            ],
            [
                0.015350341796875
            ]
        ],
        [
            [
                0.0146331787109375
            ],
            [
                -0.01483917236328125
            ]
        ],
        [
            [
                -0.01554107666015625
            ],
            [
                -0.01318359375
            ]
        ],
        [
            [
                0.0138092041015625
            ],
            [
                0.01560211181640625
            ]
        ]
    ],
    "symmetric_weights_decompressor_mlp_gate_proj_weight_0": [
        [
            [
                -0.0156097412109375
            ],
            [
                0.0138702392578125
            ]
        ],
        [
            [
                0.01531219482421875
            ],
            [
                -0.01438140869140625
            ]
        ],
        [
            [
                0.01373291015625
            ],
            [
                0.0133514404296875
            ]
        ],
        [
            [
                0.01351165771484375
            ],
            [
                -0.01241302490234375
            ]
        ],
        [
            [
                0.01239776611328125
            ],
            [
                -0.01500701904296875
            ]
        ],
        [
            [
                -0.0160064697265625
            ],
            [
                -0.01306915283203125
            ]
        ],
        [
            [
                -0.0152587890625
            ],
            [
                -0.01387786865234375
            ]
        ],
        [
            [
                -0.0160369873046875
            ],
            [
                -0.01507568359375
            ]
        ],
        [
            [
                -0.0150604248046875
            ],
            [
                -0.0146942138671875
            ]
        ],
        [
            [
                -0.0153350830078125
            ],
            [
                0.0147247314453125
            ]
        ],
        [
            [
                0.01427459716796875
            ],
            [
                -0.01500701904296875
            ]
        ],
        [
            [
                -0.0140380859375
            ],
            [
                0.01541900634765625
            ]
        ],
        [
            [
                0.01519775390625
            ],
            [
                0.01490020751953125
            ]
        ],
        [
            [
                0.01526641845703125
            ],
            [
                0.01348114013671875
            ]
        ],
        [
            [
                0.01519012451171875
            ],
            [
                -0.0141448974609375
            ]
        ],
        [
            [
                0.0132904052734375
            ],
            [
                0.013275146484375
            ]
        ],
        [
            [
                -0.0136566162109375
            ],
            [
                -0.016143798828125
            ]
        ],
        [
            [
                0.0150604248046875
            ],
            [
                0.01561737060546875
            ]
        ],
        [
            [
                -0.01538848876953125
            ],
            [
                0.01464080810546875
            ]
        ],
        [
            [
                0.016021728515625
            ],
            [
                0.01496124267578125
            ]
        ],
        [
            [
                0.01239776611328125
            ],
            [
                -0.01406097412109375
            ]
        ],
        [
            [
                -0.01380157470703125
            ],
            [
                0.015533447265625
            ]
        ],
        [
            [
                -0.015472412109375
            ],
            [
                -0.01557159423828125
            ]
        ],
        [
            [
                -0.014190673828125
            ],
            [
                0.01348114013671875
            ]
        ],
        [
            [
                -0.01543426513671875
            ],
            [
                -0.0142669677734375
            ]
        ],
        [
            [
                0.014923095703125
            ],
            [
                0.01528167724609375
            ]
        ],
        [
            [
                0.01294708251953125
            ],
            [
                -0.014862060546875
            ]
        ],
        [
            [
                0.01442718505859375
            ],
            [
                -0.01514434814453125
            ]
        ],
        [
            [
                0.01561737060546875
            ],
            [
                -0.0137481689453125
            ]
        ],
        [
            [
                0.0157928466796875
            ],
            [
                0.015838623046875
            ]
        ],
        [
            [
                -0.01508331298828125
            ],
            [
                0.0143585205078125
            ]
        ],
        [
            [
                0.01557159423828125
            ],
            [
                0.0131988525390625
            ]
        ],
        [
            [
                0.01296234130859375
            ],
            [
                -0.01441192626953125
            ]
        ],
        [
            [
                0.014129638671875
            ],
            [
                0.0147552490234375
            ]
        ],
        [
            [
                -0.014892578125
            ],
            [
                -0.01434326171875
            ]
        ],
        [
            [
                -0.0155487060546875
            ],
            [
                0.0153961181640625
            ]
        ],
        [
            [
                0.01314544677734375
            ],
            [
                0.01385498046875
            ]
        ],
        [
            [
                -0.013671875
            ],
            [
                0.015106201171875
            ]
        ],
        [
            [
                0.012725830078125
            ],
            [
                0.01401519775390625
            ]
        ],
        [
            [
                0.0154876708984375
            ],
            [
                -0.01436614990234375
            ]
        ],
        [
            [
                -0.0135955810546875
            ],
            [
                0.0159149169921875
            ]
        ],
        [
            [
                0.01509857177734375
            ],
            [
                0.015533447265625
            ]
        ],
        [
            [
                0.01290130615234375
            ],
            [
                -0.012908935546875
            ]
        ],
        [
            [
                0.01514434814453125
            ],
            [
                0.0147247314453125
            ]
        ],
        [
            [
                0.0133056640625
            ],
            [
                -0.0161590576171875
            ]
        ],
        [
            [
                0.01409912109375
            ],
            [
                -0.01456451416015625
            ]
        ],
        [
            [
                0.0138092041015625
            ],
            [
                -0.0165863037109375
            ]
        ],
        [
            [
                0.01416015625
            ],
            [
                0.01491546630859375
            ]
        ],
        [
            [
                -0.01523590087890625
            ],
            [
                0.0150909423828125
            ]
        ],
        [
            [
                -0.0140533447265625
            ],
            [
                -0.01312255859375
            ]
        ],
        [
            [
                -0.01364898681640625
            ],
            [
                0.01268768310546875
            ]
        ],
        [
            [
                -0.01406097412109375
            ],
            [
                0.01497650146484375
            ]
        ],
        [
            [
                0.0128326416015625
            ],
            [
                0.01483917236328125
            ]
        ],
        [
            [
                -0.0146026611328125
            ],
            [
                -0.01520538330078125
            ]
        ],
        [
            [
                0.0151214599609375
            ],
            [
                0.0113372802734375
            ]
        ],
        [
            [
                -0.0147857666015625
            ],
            [
                -0.015716552734375
            ]
        ],
        [
            [
                0.01318359375
            ],
            [
                -0.01543426513671875
            ]
        ],
        [
            [
                0.01508331298828125
            ],
            [
                -0.01529693603515625
            ]
        ],
        [
            [
                0.01462554931640625
            ],
            [
                -0.01311492919921875
            ]
        ],
        [
            [
                -0.0139007568359375
            ],
            [
                0.01496124267578125
            ]
        ],
        [
            [
                0.0155792236328125
            ],
            [
                0.015899658203125
            ]
        ],
        [
            [
                0.01395416259765625
            ],
            [
                0.0123291015625
            ]
        ],
        [
            [
                -0.01465606689453125
            ],
            [
                -0.0148162841796875
            ]
        ],
        [
            [
                0.01617431640625
            ],
            [
                -0.0152130126953125
            ]
        ],
        [
            [
                -0.01348876953125
            ],
            [
                -0.0154571533203125
            ]
        ],
        [
            [
                -0.01517486572265625
            ],
            [
                -0.0145263671875
            ]
        ],
        [
            [
                0.01546478271484375
            ],
            [
                -0.01513671875
            ]
        ],
        [
            [
                0.015594482421875
            ],
            [
                -0.01428985595703125
            ]
        ],
        [
            [
                0.0152435302734375
            ],
            [
                -0.0138092041015625
            ]
        ],
        [
            [
                0.0145263671875
            ],
            [
                0.01174163818359375
            ]
        ],
        [
            [
                -0.0145263671875
            ],
            [
                0.01326751708984375
            ]
        ],
        [
            [
                -0.01523590087890625
            ],
            [
                0.0143585205078125
            ]
        ],
        [
            [
                -0.01380157470703125
            ],
            [
                -0.01544189453125
            ]
        ],
        [
            [
                0.012054443359375
            ],
            [
                -0.01401519775390625
            ]
        ],
        [
            [
                0.01190185546875
            ],
            [
                -0.016571044921875
            ]
        ],
        [
            [
                -0.01470184326171875
            ],
            [
                -0.0139007568359375
            ]
        ],
        [
            [
                0.013427734375
            ],
            [
                -0.0148773193359375
            ]
        ],
        [
            [
                -0.01534271240234375
            ],
            [
                0.01479339599609375
            ]
        ],
        [
            [
                0.01433563232421875
            ],
            [
                0.01558685302734375
            ]
        ],
        [
            [
                0.0167999267578125
            ],
            [
                -0.01342010498046875
            ]
        ],
        [
            [
                -0.0141754150390625
            ],
            [
                -0.01506805419921875
            ]
        ],
        [
            [
                0.01541900634765625
            ],
            [
                -0.01486968994140625
            ]
        ],
        [
            [
                -0.01505279541015625
            ],
            [
                0.015533447265625
            ]
        ],
        [
            [
                0.013519287109375
            ],
            [
                0.014434814453125
            ]
        ],
        [
            [
                0.0151824951171875
            ],
            [
                -0.01277923583984375
            ]
        ],
        [
            [
                0.01611328125
            ],
            [
                -0.0157470703125
            ]
        ],
        [
            [
                0.01448822021484375
            ],
            [
                0.01453399658203125
            ]
        ],
        [
            [
                0.0153350830078125
            ],
            [
                0.0142059326171875
            ]
        ],
        [
            [
                -0.014190673828125
            ],
            [
                -0.013946533203125
            ]
        ],
        [
            [
                0.014923095703125
            ],
            [
                -0.01447296142578125
            ]
        ],
        [
            [
                0.014495849609375
            ],
            [
                0.014404296875
            ]
        ],
        [
            [
                0.016204833984375
            ],
            [
                0.015594482421875
            ]
        ],
        [
            [
                0.01555633544921875
            ],
            [
                -0.01470947265625
            ]
        ],
        [
            [
                -0.01280975341796875
            ],
            [
                0.0138092041015625
            ]
        ],
        [
            [
                -0.0149383544921875
            ],
            [
                0.0152587890625
            ]
        ],
        [
            [
                -0.0153961181640625
            ],
            [
                -0.01477813720703125
            ]
        ],
        [
            [
                -0.01474761962890625
            ],
            [
                -0.0145111083984375
            ]
        ],
        [
            [
                -0.01343536376953125
            ],
            [
                0.013824462890625
            ]
        ],
        [
            [
                0.0166778564453125
            ],
            [
                0.014190673828125
            ]
        ],
        [
            [
                0.01358795166015625
            ],
            [
                0.015838623046875
            ]
        ],
        [
            [
                -0.01520538330078125
            ],
            [
                0.01334381103515625
            ]
        ],
        [
            [
                -0.01416015625
            ],
            [
                0.013824462890625
            ]
        ],
        [
            [
                -0.01309967041015625
            ],
            [
                0.0156402587890625
            ]
        ],
        [
            [
                0.0135955810546875
            ],
            [
                0.0158538818359375
            ]
        ],
        [
            [
                -0.01552581787109375
            ],
            [
                0.0140228271484375
            ]
        ],
        [
            [
                0.01302337646484375
            ],
            [
                -0.01416015625
            ]
        ],
        [
            [
                0.013336181640625
            ],
            [
                0.01395416259765625
            ]
        ],
        [
            [
                0.0152435302734375
            ],
            [
                0.01525115966796875
            ]
        ],
        [
            [
                0.014373779296875
            ],
            [
                0.0148162841796875
            ]
        ],
        [
            [
                -0.01324462890625
            ],
            [
                -0.01549530029296875
            ]
        ],
        [
            [
                0.0152740478515625
            ],
            [
                -0.01324462890625
            ]
        ],
        [
            [
                0.015655517578125
            ],
            [
                0.01544952392578125
            ]
        ],
        [
            [
                0.0155792236328125
            ],
            [
                -0.01348114013671875
            ]
        ],
        [
            [
                -0.01526641845703125
            ],
            [
                -0.0137176513671875
            ]
        ],
        [
            [
                -0.0145721435546875
            ],
            [
                0.01506805419921875
            ]
        ],
        [
            [
                -0.01479339599609375
            ],
            [
                0.0142059326171875
            ]
        ],
        [
            [
                0.0159912109375
            ],
            [
                0.015106201171875
            ]
        ],
        [
            [
                0.0155029296875
            ],
            [
                -0.01354217529296875
            ]
        ],
        [
            [
                -0.01551055908203125
            ],
            [
                0.0157012939453125
            ]
        ],
        [
            [
                -0.0138397216796875
            ],
            [
                0.01361083984375
            ]
        ],
        [
            [
                0.0142669677734375
            ],
            [
                -0.01470947265625
            ]
        ],
        [
            [
                -0.0139312744140625
            ],
            [
                -0.01308441162109375
            ]
        ],
        [
            [
                0.01525115966796875
            ],
            [
                -0.015869140625
            ]
        ],
        [
            [
                0.01397705078125
            ],
            [
                0.01459503173828125
            ]
        ],
        [
            [
                -0.015838623046875
            ],
            [
                -0.01488494873046875
            ]
        ],
        [
            [
                0.01422882080078125
            ],
            [
                -0.01251220703125
            ]
        ],
        [
            [
                -0.0144805908203125
            ],
            [
                -0.013336181640625
            ]
        ],
        [
            [
                0.01526641845703125
            ],
            [
                -0.0143585205078125
            ]
        ]
    ],
    "asymmetric_weights_decompressor_mlp_up_proj_weight_0": [
        [
            0.0009670257568359375
        ],
        [
            0.0009627342224121094
        ],
        [
            0.0009636878967285156
        ],
        [
            0.0009675025939941406
        ],
        [
            0.0009679794311523438
        ],
        [
            0.00096893310546875
        ],
        [
            0.0009675025939941406
        ],
        [
            0.0009493827819824219
        ],
        [
            0.00096893310546875
        ],
        [
            0.0009484291076660156
        ],
        [
            0.000949859619140625
        ],
        [
            0.0009398460388183594
        ],
        [
            0.0009174346923828125
        ],
        [
            0.0009679794311523438
        ],
        [
            0.0009403228759765625
        ],
        [
            0.0009741783142089844
        ],
        [
            0.0008835792541503906
        ],
        [
            0.0009450912475585938
        ],
        [
            0.0009484291076660156
        ],
        [
            0.0009655952453613281
        ],
        [
            0.0009579658508300781
        ],
        [
            0.00091552734375
        ],
        [
            0.0009326934814453125
        ],
        [
            0.0009489059448242188
        ],
        [
            0.0009627342224121094
        ],
        [
            0.0009765625
        ],
        [
            0.0009531974792480469
        ],
        [
            0.0009503364562988281
        ],
        [
            0.0009765625
        ],
        [
            0.0009579658508300781
        ],
        [
            0.0009169578552246094
        ],
        [
            0.0009493827819824219
        ],
        [
            0.0009450912475585938
        ],
        [
            0.0009741783142089844
        ],
        [
            0.0009379386901855469
        ],
        [
            0.0009403228759765625
        ],
        [
            0.00092315673828125
        ],
        [
            0.0009717941284179688
        ],
        [
            0.000911712646484375
        ],
        [
            0.0009722709655761719
        ],
        [
            0.0009360313415527344
        ],
        [
            0.0009765625
        ],
        [
            0.000972747802734375
        ],
        [
            0.0009288787841796875
        ],
        [
            0.0009722709655761719
        ],
        [
            0.0009121894836425781
        ],
        [
            0.0009512901306152344
        ],
        [
            0.0009007453918457031
        ],
        [
            0.0009570121765136719
        ],
        [
            0.0009136199951171875
        ],
        [
            0.0009436607360839844
        ],
        [
            0.0009584426879882812
        ],
        [
            0.0009655952453613281
        ],
        [
            0.0009465217590332031
        ],
        [
            0.0009765625
        ],
        [
            0.0009484291076660156
        ],
        [
            0.0009670257568359375
        ],
        [
            0.0009775161743164062
        ],
        [
            0.0009627342224121094
        ],
        [
            0.0009360313415527344
        ],
        [
            0.0009546279907226562
        ],
        [
            0.0009737014770507812
        ],
        [
            0.0009717941284179688
        ],
        [
            0.0009551048278808594
        ],
        [
            0.0009722709655761719
        ],
        [
            0.0009765625
        ],
        [
            0.0008749961853027344
        ],
        [
            0.0009751319885253906
        ],
        [
            0.0009322166442871094
        ],
        [
            0.0009546279907226562
        ],
        [
            0.0009331703186035156
        ],
        [
            0.000965118408203125
        ],
        [
            0.0009756088256835938
        ],
        [
            0.0009636878967285156
        ],
        [
            0.000965118408203125
        ],
        [
            0.0009760856628417969
        ],
        [
            0.0009546279907226562
        ],
        [
            0.0009207725524902344
        ],
        [
            0.0009741783142089844
        ],
        [
            0.0009436607360839844
        ],
        [
            0.0009217262268066406
        ],
        [
            0.0009722709655761719
        ],
        [
            0.0009579658508300781
        ],
        [
            0.000965118408203125
        ],
        [
            0.0009684562683105469
        ],
        [
            0.0009641647338867188
        ],
        [
            0.0009579658508300781
        ],
        [
            0.0009617805480957031
        ],
        [
            0.0009646415710449219
        ],
        [
            0.0009684562683105469
        ],
        [
            0.0009202957153320312
        ],
        [
            0.0009560585021972656
        ],
        [
            0.0009617805480957031
        ],
        [
            0.0009784698486328125
        ],
        [
            0.00089263916015625
        ],
        [
            0.0009698867797851562
        ],
        [
            0.0009479522705078125
        ],
        [
            0.0009436607360839844
        ],
        [
            0.0009250640869140625
        ],
        [
            0.000946044921875
        ],
        [
            0.0009484291076660156
        ],
        [
            0.0009794235229492188
        ],
        [
            0.0009698867797851562
        ],
        [
            0.0009255409240722656
        ],
        [
            0.0009746551513671875
        ],
        [
            0.0009427070617675781
        ],
        [
            0.0009365081787109375
        ],
        [
            0.0009627342224121094
        ],
        [
            0.000965118408203125
        ],
        [
            0.0009694099426269531
        ],
        [
            0.0009379386901855469
        ],
        [
            0.0009407997131347656
        ],
        [
            0.0009579658508300781
        ],
        [
            0.0009579658508300781
        ],
        [
            0.0009360313415527344
        ],
        [
            0.0009374618530273438
        ],
        [
            0.000934600830078125
        ],
        [
            0.000965118408203125
        ],
        [
            0.0009431838989257812
        ],
        [
            0.0009489059448242188
        ],
        [
            0.0009617805480957031
        ],
        [
            0.0009570121765136719
        ],
        [
            0.0009522438049316406
        ],
        [
            0.0009083747863769531
        ],
        [
            0.0009484291076660156
        ],
        [
            0.0009508132934570312
        ],
        [
            0.0009775161743164062
        ],
        [
            0.0009584426879882812
        ]
    ],
    "asymmetric_weights_decompressor_mlp_down_proj_weight_0": [
        [
            0.0006890296936035156
        ],
        [
            0.0006866455078125
        ],
        [
            0.0006794929504394531
        ],
        [
            0.0006856918334960938
        ],
        [
            0.0006885528564453125
        ],
        [
            0.0006775856018066406
        ],
        [
            0.00067901611328125
        ],
        [
            0.0006818771362304688
        ],
        [
            0.0006885528564453125
        ],
        [
            0.0006928443908691406
        ],
        [
            0.0006814002990722656
        ],
        [
            0.000690460205078125
        ],
        [
            0.0006756782531738281
        ],
        [
            0.0006895065307617188
        ],
        [
            0.0006847381591796875
        ],
        [
            0.0006761550903320312
        ],
        [
            0.0006814002990722656
        ],
        [
            0.0006885528564453125
        ],
        [
            0.000682830810546875
        ],
        [
            0.0006794929504394531
        ],
        [
            0.0006899833679199219
        ],
        [
            0.0006809234619140625
        ],
        [
            0.0006785392761230469
        ],
        [
            0.0006670951843261719
        ],
        [
            0.0006914138793945312
        ],
        [
            0.0006780624389648438
        ],
        [
            0.0006856918334960938
        ],
        [
            0.0006742477416992188
        ],
        [
            0.000690460205078125
        ],
        [
            0.0006909370422363281
        ],
        [
            0.0006885528564453125
        ],
        [
            0.0006866455078125
        ],
        [
            0.0006842613220214844
        ],
        [
            0.0006880760192871094
        ],
        [
            0.0006861686706542969
        ],
        [
            0.0006861686706542969
        ],
        [
            0.0006804466247558594
        ],
        [
            0.0006866455078125
        ],
        [
            0.0006761550903320312
        ],
        [
            0.0006871223449707031
        ],
        [
            0.0006875991821289062
        ],
        [
            0.0006780624389648438
        ],
        [
            0.0006880760192871094
        ],
        [
            0.0006909370422363281
        ],
        [
            0.0006718635559082031
        ],
        [
            0.0006723403930664062
        ],
        [
            0.0006895065307617188
        ],
        [
            0.0006694793701171875
        ],
        [
            0.0006737709045410156
        ],
        [
            0.0006885528564453125
        ],
        [
            0.0006785392761230469
        ],
        [
            0.0006885528564453125
        ],
        [
            0.0006804466247558594
        ],
        [
            0.0006866455078125
        ],
        [
            0.0006666183471679688
        ],
        [
            0.0006909370422363281
        ],
        [
            0.0006833076477050781
        ],
        [
            0.0006875991821289062
        ],
        [
            0.0006818771362304688
        ],
        [
            0.0006794929504394531
        ],
        [
            0.0006918907165527344
        ],
        [
            0.0006780624389648438
        ],
        [
            0.0006914138793945312
        ],
        [
            0.0006756782531738281
        ]
    ]
}