{
    "matmul_2_data": {
        "compressed_weight": [
            [
                -60,
                -128,
                -18
            ],
            [
                85,
                -77,
                -128
            ],
            [
                -30,
                -94,
                -128
            ],
            [
                51,
                -128,
                109
            ],
            [
                87,
                -128,
                39
            ],
            [
                118,
                -39,
                -128
            ]
        ],
        "scale": [
            [
                0.005462646484375
            ],
            [
                0.006999969482421875
            ],
            [
                0.0063934326171875
            ],
            [
                0.0031452178955078125
            ],
            [
                -0.006908416748046875
            ],
            [
                -0.00667572021484375
            ]
        ]
    },
    "matmul_1_data": {
        "compressed_weight": [
            [
                -54,
                -21,
                -128,
                -102,
                46,
                40
            ],
            [
                -30,
                30,
                -128,
                -124,
                -48,
                -39
            ],
            [
                66,
                -39,
                -128,
                78,
                9,
                -67
            ],
            [
                4,
                -115,
                -128,
                42,
                -21,
                53
            ],
            [
                -31,
                53,
                36,
                -128,
                89,
                -40
            ],
            [
                -121,
                96,
                83,
                -76,
                109,
                -128
            ]
        ],
        "scale": [
            [
                0.0073699951171875
            ],
            [
                -0.007770538330078125
            ],
            [
                0.005702972412109375
            ],
            [
                -0.00678253173828125
            ],
            [
                -0.006099700927734375
            ],
            [
                0.00689697265625
            ]
        ]
    },
    "gather_2_data": {
        "compressed_weight": [
            [
                36,
                -61,
                -122,
                -128,
                83,
                109
            ],
            [
                27,
                59,
                11,
                112,
                81,
                -128
            ],
            [
                98,
                -128,
                63,
                -89,
                100,
                11
            ]
        ],
        "scale": [
            [
                0.0075531005859375
            ],
            [
                0.007770538330078125
            ],
            [
                0.00728607177734375
            ]
        ]
    }
}