{
    "matmul_2_data": {
        "compressed_weight": [
            [
                [
                    -3.0,
                    -6.0,
                    -1.0
                ]
            ],
            [
                [
                    4.0,
                    -4.0,
                    -6.0
                ]
            ],
            [
                [
                    -1.5,
                    -4.0,
                    -6.0
                ]
            ],
            [
                [
                    2.0,
                    -6.0,
                    6.0
                ]
            ],
            [
                [
                    -4.0,
                    6.0,
                    -2.0
                ]
            ],
            [
                [
                    -6.0,
                    2.0,
                    6.0
                ]
            ]
        ],
        "scale": [
            [
                [
                    0.1165771484375
                ]
            ],
            [
                [
                    0.1492919921875
                ]
            ],
            [
                [
                    0.136474609375
                ]
            ],
            [
                [
                    0.06707763671875
                ]
            ],
            [
                [
                    0.1473388671875
                ]
            ],
            [
                [
                    0.142333984375
                ]
            ]
        ]
    },
    "matmul_1_data": {
        "compressed_weight": [
            [
                [
                    -192.0,
                    -72.0,
                    -448.0
                ],
                [
                    -448.0,
                    208.0,
                    176.0
                ]
            ],
            [
                [
                    104.0,
                    -104.0,
                    448.0
                ],
                [
                    448.0,
                    176.0,
                    144.0
                ]
            ],
            [
                [
                    224.0,
                    -144.0,
                    -448.0
                ],
                [
                    448.0,
                    52.0,
                    -384.0
                ]
            ],
            [
                [
                    -15.0,
                    416.0,
                    448.0
                ],
                [
                    -352.0,
                    176.0,
                    -448.0
                ]
            ],
            [
                [
                    256.0,
                    -448.0,
                    -288.0
                ],
                [
                    448.0,
                    -320.0,
                    144.0
                ]
            ],
            [
                [
                    -448.0,
                    352.0,
                    320.0
                ],
                [
                    -256.0,
                    384.0,
                    -448.0
                ]
            ]
        ],
        "scale": [
            [
                [
                    0.002105712890625
                ],
                [
                    0.0016775131225585938
                ]
            ],
            [
                [
                    0.00222015380859375
                ],
                [
                    0.0021457672119140625
                ]
            ],
            [
                [
                    0.001628875732421875
                ],
                [
                    0.0009889602661132812
                ]
            ],
            [
                [
                    0.0019378662109375
                ],
                [
                    0.0007953643798828125
                ]
            ],
            [
                [
                    0.0007238388061523438
                ],
                [
                    0.0017423629760742188
                ]
            ],
            [
                [
                    0.0018568038940429688
                ],
                [
                    0.0019702911376953125
                ]
            ]
        ]
    },
    "gather_2_data": {
        "compressed_weight": [
            [
                [
                    128.0,
                    -224.0,
                    -448.0
                ],
                [
                    -448.0,
                    288.0,
                    384.0
                ]
            ],
            [
                [
                    208.0,
                    448.0,
                    88.0
                ],
                [
                    384.0,
                    288.0,
                    -448.0
                ]
            ],
            [
                [
                    352.0,
                    -448.0,
                    224.0
                ],
                [
                    -384.0,
                    448.0,
                    52.0
                ]
            ]
        ],
        "scale": [
            [
                [
                    0.002048492431640625
                ],
                [
                    0.00215911865234375
                ]
            ],
            [
                [
                    0.0010242462158203125
                ],
                [
                    0.00222015380859375
                ]
            ],
            [
                [
                    0.00208282470703125
                ],
                [
                    0.001621246337890625
                ]
            ]
        ]
    }
}