{
    "matmul_2_data": {
        "compressed_weight": [
            [
                [
                    -144.0,
                    -320.0,
                    -44.0,
                    256.0,
                    -240.0,
                    -416.0,
                    -88.0,
                    -288.0,
                    -384.0,
                    72.0,
                    -176.0,
                    160.0,
                    -256.0,
                    384.0,
                    -120.0,
                    -352.0,
                    120.0,
                    384.0,
                    -52.0,
                    416.0,
                    -0.09375,
                    -64.0,
                    112.0,
                    448.0,
                    416.0,
                    -36.0,
                    240.0,
                    -2.25,
                    26.0,
                    256.0,
                    -80.0,
                    208.0
                ]
            ],
            [
                [
                    192.0,
                    384.0,
                    -352.0,
                    208.0,
                    384.0,
                    448.0,
                    -448.0,
                    320.0,
                    448.0,
                    416.0,
                    -320.0,
                    448.0,
                    352.0,
                    288.0,
                    -18.0,
                    -240.0,
                    288.0,
                    384.0,
                    -208.0,
                    36.0,
                    -52.0,
                    384.0,
                    -416.0,
                    208.0,
                    104.0,
                    -448.0,
                    208.0,
                    -448.0,
                    240.0,
                    12.0,
                    384.0,
                    -416.0
                ]
            ],
            [
                [
                    320.0,
                    -416.0,
                    -144.0,
                    -64.0,
                    448.0,
                    60.0,
                    -224.0,
                    -256.0,
                    384.0,
                    -256.0,
                    -352.0,
                    -208.0,
                    80.0,
                    52.0,
                    288.0,
                    60.0,
                    -208.0,
                    -80.0,
                    320.0,
                    120.0,
                    448.0,
                    -128.0,
                    52.0,
                    88.0,
                    320.0,
                    -352.0,
                    -88.0,
                    384.0,
                    -448.0,
                    320.0,
                    -80.0,
                    320.0
                ]
            ],
            [
                [
                    -448.0,
                    -120.0,
                    -384.0,
                    144.0,
                    -208.0,
                    176.0,
                    416.0,
                    -352.0,
                    320.0,
                    -384.0,
                    -104.0,
                    -64.0,
                    -10.0,
                    416.0,
                    256.0,
                    -176.0,
                    -208.0,
                    320.0,
                    352.0,
                    10.0,
                    -144.0,
                    448.0,
                    -160.0,
                    -288.0,
                    352.0,
                    288.0,
                    160.0,
                    416.0,
                    384.0,
                    224.0,
                    320.0,
                    -224.0
                ]
            ],
            [
                [
                    -320.0,
                    160.0,
                    192.0,
                    -288.0,
                    -96.0,
                    384.0,
                    56.0,
                    72.0,
                    -288.0,
                    24.0,
                    22.0,
                    -384.0,
                    448.0,
                    64.0,
                    -448.0,
                    240.0,
                    448.0,
                    80.0,
                    -160.0,
                    -288.0,
                    160.0,
                    -288.0,
                    72.0,
                    96.0,
                    416.0,
                    -384.0,
                    -0.025390625,
                    224.0,
                    -288.0,
                    -104.0,
                    -384.0,
                    208.0
                ]
            ],
            [
                [
                    -384.0,
                    -96.0,
                    352.0,
                    -26.0,
                    384.0,
                    240.0,
                    384.0,
                    -352.0,
                    -384.0,
                    -384.0,
                    352.0,
                    120.0,
                    -3.25,
                    -320.0,
                    160.0,
                    -160.0,
                    192.0,
                    -36.0,
                    7.0,
                    256.0,
                    -384.0,
                    72.0,
                    -288.0,
                    288.0,
                    -10.0,
                    448.0,
                    -288.0,
                    416.0,
                    288.0,
                    -18.0,
                    288.0,
                    96.0
                ]
            ]
        ],
        "scale": [
            [
                [
                    0.0022106170654296875
                ]
            ],
            [
                [
                    0.002166748046875
                ]
            ],
            [
                [
                    0.0020809173583984375
                ]
            ],
            [
                [
                    0.002208709716796875
                ]
            ],
            [
                [
                    0.0022029876708984375
                ]
            ],
            [
                [
                    0.0021820068359375
                ]
            ]
        ]
    },
    "matmul_1_data": {
        "compressed_weight": [
            [
                107,
                156,
                0,
                38,
                255,
                245
            ],
            [
                96,
                0,
                255,
                248,
                125,
                111
            ],
            [
                241,
                111,
                0,
                255,
                170,
                76
            ],
            [
                68,
                236,
                255,
                15,
                104,
                0
            ],
            [
                141,
                43,
                63,
                255,
                0,
                152
            ],
            [
                8,
                242,
                228,
                57,
                255,
                0
            ]
        ],
        "zero_point": [
            [
                187
            ],
            [
                48
            ],
            [
                159
            ],
            [
                74
            ],
            [
                105
            ],
            [
                138
            ]
        ],
        "scale": [
            [
                0.005039215087890625
            ],
            [
                0.004810333251953125
            ],
            [
                0.00460052490234375
            ],
            [
                0.004802703857421875
            ],
            [
                0.005199432373046875
            ],
            [
                0.00641632080078125
            ]
        ]
    },
    "gather_2_data": {
        "compressed_weight": [
            [
                177,
                72,
                7,
                0,
                227,
                255
            ],
            [
                165,
                199,
                148,
                255,
                222,
                0
            ],
            [
                253,
                0,
                214,
                43,
                255,
                156
            ]
        ],
        "zero_point": [
            [
                138
            ],
            [
                136
            ],
            [
                143
            ]
        ],
        "scale": [
            [
                0.007030487060546875
            ],
            [
                0.007312774658203125
            ],
            [
                0.00650787353515625
            ]
        ]
    }
}