{
    "matmul_2_data": {
        "compressed_weight": [
            [
                [
                    -16.0,
                    28.0,
                    -56.0,
                    128.0,
                    96.0,
                    96.0,
                    144.0,
                    -52.0,
                    -192.0,
                    160.0,
                    -80.0,
                    96.0,
                    256.0,
                    104.0,
                    208.0,
                    -256.0,
                    52.0,
                    -208.0,
                    192.0,
                    240.0,
                    -240.0,
                    -192.0,
                    176.0,
                    96.0,
                    240.0,
                    128.0,
                    48.0,
                    20.0,
                    -256.0,
                    144.0,
                    -60.0,
                    -208.0
                ]
            ],
            [
                [
                    24.0,
                    -64.0,
                    56.0,
                    -240.0,
                    -176.0,
                    20.0,
                    56.0,
                    -208.0,
                    72.0,
                    176.0,
                    -112.0,
                    11.0,
                    208.0,
                    104.0,
                    -144.0,
                    240.0,
                    -80.0,
                    160.0,
                    -24.0,
                    144.0,
                    208.0,
                    208.0,
                    160.0,
                    -88.0,
                    208.0,
                    -176.0,
                    -120.0,
                    72.0,
                    128.0,
                    -224.0,
                    -120.0,
                    -64.0
                ]
            ],
            [
                [
                    176.0,
                    -256.0,
                    192.0,
                    -88.0,
                    60.0,
                    224.0,
                    -224.0,
                    24.0,
                    -144.0,
                    104.0,
                    160.0,
                    -128.0,
                    192.0,
                    -160.0,
                    -10.0,
                    -192.0,
                    -96.0,
                    -64.0,
                    96.0,
                    -96.0,
                    15.0,
                    80.0,
                    144.0,
                    -104.0,
                    -224.0,
                    -128.0,
                    24.0,
                    192.0,
                    80.0,
                    56.0,
                    -240.0,
                    -1.0
                ]
            ],
            [
                [
                    -88.0,
                    -80.0,
                    240.0,
                    -176.0,
                    -208.0,
                    -96.0,
                    72.0,
                    -120.0,
                    104.0,
                    96.0,
                    -32.0,
                    176.0,
                    -88.0,
                    64.0,
                    20.0,
                    -224.0,
                    -80.0,
                    32.0,
                    240.0,
                    144.0,
                    -10.0,
                    -160.0,
                    -120.0,
                    -240.0,
                    40.0,
                    -40.0,
                    80.0,
                    16.0,
                    -44.0,
                    -72.0,
                    -240.0,
                    240.0
                ]
            ],
            [
                [
                    -224.0,
                    -240.0,
                    -144.0,
                    -192.0,
                    144.0,
                    -176.0,
                    -80.0,
                    -256.0,
                    224.0,
                    -88.0,
                    176.0,
                    240.0,
                    120.0,
                    -120.0,
                    -4.0,
                    144.0,
                    104.0,
                    160.0,
                    22.0,
                    80.0,
                    -72.0,
                    -160.0,
                    104.0,
                    -256.0,
                    144.0,
                    -256.0,
                    60.0,
                    48.0,
                    -208.0,
                    48.0,
                    128.0,
                    18.0
                ]
            ],
            [
                [
                    88.0,
                    104.0,
                    -144.0,
                    224.0,
                    -88.0,
                    44.0,
                    -208.0,
                    256.0,
                    80.0,
                    -20.0,
                    32.0,
                    -240.0,
                    -128.0,
                    240.0,
                    -208.0,
                    -176.0,
                    36.0,
                    144.0,
                    176.0,
                    192.0,
                    128.0,
                    -80.0,
                    40.0,
                    160.0,
                    -192.0,
                    -208.0,
                    -22.0,
                    -96.0,
                    -256.0,
                    9.0,
                    -64.0,
                    192.0
                ]
            ],
            [
                [
                    -88.0,
                    80.0,
                    36.0,
                    -104.0,
                    -16.0,
                    -64.0,
                    -128.0,
                    -208.0,
                    -224.0,
                    -144.0,
                    -208.0,
                    -176.0,
                    -192.0,
                    -64.0,
                    -128.0,
                    -256.0,
                    -240.0,
                    256.0,
                    -128.0,
                    -240.0,
                    64.0,
                    26.0,
                    -56.0,
                    120.0,
                    224.0,
                    -52.0,
                    -64.0,
                    7.5,
                    -128.0,
                    -160.0,
                    -56.0,
                    88.0
                ]
            ],
            [
                [
                    -256.0,
                    -192.0,
                    160.0,
                    -88.0,
                    30.0,
                    -224.0,
                    26.0,
                    -240.0,
                    -144.0,
                    -26.0,
                    12.0,
                    -192.0,
                    -20.0,
                    144.0,
                    104.0,
                    -64.0,
                    -2.0,
                    160.0,
                    -120.0,
                    -192.0,
                    240.0,
                    192.0,
                    192.0,
                    -12.0,
                    -240.0,
                    128.0,
                    144.0,
                    240.0,
                    -240.0,
                    160.0,
                    -80.0,
                    88.0
                ]
            ],
            [
                [
                    208.0,
                    -128.0,
                    256.0,
                    -240.0,
                    -192.0,
                    -10.0,
                    112.0,
                    224.0,
                    176.0,
                    240.0,
                    -30.0,
                    -48.0,
                    44.0,
                    96.0,
                    208.0,
                    48.0,
                    208.0,
                    -44.0,
                    144.0,
                    256.0,
                    -208.0,
                    104.0,
                    208.0,
                    208.0,
                    192.0,
                    -112.0,
                    -48.0,
                    4.0,
                    240.0,
                    -120.0,
                    80.0,
                    128.0
                ]
            ],
            [
                [
                    -176.0,
                    192.0,
                    2.75,
                    240.0,
                    192.0,
                    224.0,
                    -160.0,
                    176.0,
                    192.0,
                    224.0,
                    80.0,
                    -64.0,
                    44.0,
                    -176.0,
                    256.0,
                    112.0,
                    -80.0,
                    208.0,
                    112.0,
                    -88.0,
                    224.0,
                    -88.0,
                    -96.0,
                    -240.0,
                    104.0,
                    -208.0,
                    -224.0,
                    80.0,
                    240.0,
                    -224.0,
                    128.0,
                    -144.0
                ]
            ],
            [
                [
                    192.0,
                    -256.0,
                    -160.0,
                    240.0,
                    40.0,
                    -192.0,
                    -256.0,
                    -48.0,
                    -32.0,
                    16.0,
                    96.0,
                    -176.0,
                    -96.0,
                    -224.0,
                    256.0,
                    -40.0,
                    88.0,
                    -112.0,
                    -176.0,
                    -160.0,
                    -256.0,
                    96.0,
                    256.0,
                    -208.0,
                    -176.0,
                    160.0,
                    72.0,
                    224.0,
                    -72.0,
                    -36.0,
                    -112.0,
                    160.0
                ]
            ],
            [
                [
                    -160.0,
                    -60.0,
                    80.0,
                    208.0,
                    160.0,
                    -208.0,
                    192.0,
                    144.0,
                    -15.0,
                    28.0,
                    -30.0,
                    -224.0,
                    -96.0,
                    208.0,
                    52.0,
                    -208.0,
                    26.0,
                    60.0,
                    160.0,
                    40.0,
                    -160.0,
                    240.0,
                    -104.0,
                    112.0,
                    96.0,
                    224.0,
                    128.0,
                    -56.0,
                    -224.0,
                    80.0,
                    -256.0,
                    -224.0
                ]
            ],
            [
                [
                    -240.0,
                    36.0,
                    144.0,
                    -224.0,
                    -96.0,
                    -60.0,
                    208.0,
                    72.0,
                    -48.0,
                    224.0,
                    96.0,
                    88.0,
                    112.0,
                    22.0,
                    -16.0,
                    240.0,
                    36.0,
                    -48.0,
                    -208.0,
                    -160.0,
                    240.0,
                    240.0,
                    -256.0,
                    -224.0,
                    88.0,
                    -144.0,
                    80.0,
                    -144.0,
                    -52.0,
                    -88.0,
                    -128.0,
                    144.0
                ]
            ],
            [
                [
                    -104.0,
                    208.0,
                    -160.0,
                    208.0,
                    -176.0,
                    -104.0,
                    240.0,
                    -224.0,
                    176.0,
                    -176.0,
                    10.0,
                    240.0,
                    -192.0,
                    -64.0,
                    4.0,
                    80.0,
                    -80.0,
                    -128.0,
                    208.0,
                    -256.0,
                    240.0,
                    -176.0,
                    -144.0,
                    120.0,
                    128.0,
                    6.5,
                    -240.0,
                    -144.0,
                    -144.0,
                    208.0,
                    -22.0,
                    144.0
                ]
            ],
            [
                [
                    208.0,
                    -56.0,
                    224.0,
                    96.0,
                    52.0,
                    -26.0,
                    -30.0,
                    -88.0,
                    -112.0,
                    -7.5,
                    -48.0,
                    -120.0,
                    -224.0,
                    240.0,
                    36.0,
                    -80.0,
                    176.0,
                    -6.5,
                    176.0,
                    -176.0,
                    -176.0,
                    -128.0,
                    192.0,
                    128.0,
                    -88.0,
                    224.0,
                    192.0,
                    -56.0,
                    52.0,
                    256.0,
                    104.0,
                    -160.0
                ]
            ],
            [
                [
                    52.0,
                    208.0,
                    16.0,
                    -16.0,
                    128.0,
                    -24.0,
                    72.0,
                    -256.0,
                    128.0,
                    240.0,
                    176.0,
                    160.0,
                    -14.0,
                    120.0,
                    -5.5,
                    -192.0,
                    -240.0,
                    -80.0,
                    176.0,
                    -15.0,
                    -192.0,
                    -240.0,
                    14.0,
                    -128.0,
                    72.0,
                    -104.0,
                    -28.0,
                    -176.0,
                    -48.0,
                    36.0,
                    16.0,
                    -208.0
                ]
            ],
            [
                [
                    192.0,
                    112.0,
                    -176.0,
                    -192.0,
                    -160.0,
                    -44.0,
                    -128.0,
                    -144.0,
                    64.0,
                    -192.0,
                    -144.0,
                    208.0,
                    -192.0,
                    -144.0,
                    208.0,
                    144.0,
                    -26.0,
                    240.0,
                    -88.0,
                    48.0,
                    -144.0,
                    -20.0,
                    -128.0,
                    112.0,
                    -160.0,
                    192.0,
                    208.0,
                    144.0,
                    192.0,
                    -104.0,
                    -224.0,
                    208.0
                ]
            ],
            [
                [
                    40.0,
                    -240.0,
                    144.0,
                    -88.0,
                    224.0,
                    256.0,
                    52.0,
                    208.0,
                    -72.0,
                    -112.0,
                    120.0,
                    30.0,
                    -240.0,
                    -80.0,
                    -256.0,
                    -96.0,
                    -16.0,
                    -72.0,
                    12.0,
                    -240.0,
                    224.0,
                    -144.0,
                    -208.0,
                    56.0,
                    88.0,
                    -88.0,
                    208.0,
                    -176.0,
                    -160.0,
                    176.0,
                    -26.0,
                    30.0
                ]
            ],
            [
                [
                    144.0,
                    -13.0,
                    192.0,
                    -144.0,
                    -5.5,
                    -176.0,
                    -128.0,
                    60.0,
                    52.0,
                    -60.0,
                    -256.0,
                    -26.0,
                    -120.0,
                    256.0,
                    40.0,
                    192.0,
                    96.0,
                    -208.0,
                    -5.0,
                    224.0,
                    16.0,
                    -176.0,
                    128.0,
                    144.0,
                    120.0,
                    80.0,
                    176.0,
                    -36.0,
                    -80.0,
                    208.0,
                    -208.0,
                    240.0
                ]
            ],
            [
                [
                    -160.0,
                    -88.0,
                    160.0,
                    -192.0,
                    -64.0,
                    80.0,
                    -88.0,
                    176.0,
                    -104.0,
                    48.0,
                    -72.0,
                    -192.0,
                    -112.0,
                    160.0,
                    -96.0,
                    -80.0,
                    192.0,
                    208.0,
                    36.0,
                    -192.0,
                    -120.0,
                    144.0,
                    -60.0,
                    224.0,
                    -60.0,
                    256.0,
                    80.0,
                    -112.0,
                    24.0,
                    160.0,
                    -128.0,
                    -104.0
                ]
            ],
            [
                [
                    -44.0,
                    -72.0,
                    224.0,
                    72.0,
                    48.0,
                    224.0,
                    -52.0,
                    96.0,
                    -176.0,
                    176.0,
                    -88.0,
                    -11.0,
                    -240.0,
                    -176.0,
                    160.0,
                    88.0,
                    -256.0,
                    128.0,
                    64.0,
                    224.0,
                    224.0,
                    -40.0,
                    -192.0,
                    -40.0,
                    -52.0,
                    0.01171875,
                    -128.0,
                    -88.0,
                    -224.0,
                    128.0,
                    -112.0,
                    96.0
                ]
            ],
            [
                [
                    -112.0,
                    176.0,
                    -128.0,
                    -192.0,
                    144.0,
                    -144.0,
                    -160.0,
                    36.0,
                    -224.0,
                    30.0,
                    -240.0,
                    -36.0,
                    -44.0,
                    -208.0,
                    -208.0,
                    44.0,
                    -256.0,
                    120.0,
                    -64.0,
                    -120.0,
                    224.0,
                    -240.0,
                    64.0,
                    -240.0,
                    -60.0,
                    -96.0,
                    -208.0,
                    144.0,
                    36.0,
                    -224.0,
                    240.0,
                    -192.0
                ]
            ],
            [
                [
                    -4.0,
                    -240.0,
                    -48.0,
                    -4.5,
                    176.0,
                    88.0,
                    -72.0,
                    -160.0,
                    -240.0,
                    -88.0,
                    -224.0,
                    -160.0,
                    80.0,
                    -160.0,
                    -64.0,
                    -256.0,
                    208.0,
                    176.0,
                    -208.0,
                    96.0,
                    -4.0,
                    160.0,
                    -160.0,
                    -160.0,
                    240.0,
                    -144.0,
                    -32.0,
                    -176.0,
                    -88.0,
                    -88.0,
                    56.0,
                    15.0
                ]
            ],
            [
                [
                    240.0,
                    160.0,
                    128.0,
                    -104.0,
                    -104.0,
                    -22.0,
                    -104.0,
                    -160.0,
                    -160.0,
                    -60.0,
                    -80.0,
                    224.0,
                    52.0,
                    192.0,
                    -208.0,
                    -240.0,
                    176.0,
                    -32.0,
                    26.0,
                    -120.0,
                    -36.0,
                    -192.0,
                    256.0,
                    26.0,
                    -208.0,
                    176.0,
                    -36.0,
                    72.0,
                    -176.0,
                    -52.0,
                    -1.0,
                    -1.375
                ]
            ],
            [
                [
                    160.0,
                    -2.25,
                    -104.0,
                    -120.0,
                    -96.0,
                    -14.0,
                    -120.0,
                    -240.0,
                    -160.0,
                    40.0,
                    -120.0,
                    -88.0,
                    -120.0,
                    -208.0,
                    -160.0,
                    -128.0,
                    176.0,
                    -144.0,
                    176.0,
                    128.0,
                    240.0,
                    128.0,
                    -192.0,
                    224.0,
                    176.0,
                    -28.0,
                    -32.0,
                    -240.0,
                    -144.0,
                    112.0,
                    -192.0,
                    256.0
                ]
            ],
            [
                [
                    -240.0,
                    256.0,
                    -104.0,
                    -20.0,
                    24.0,
                    -104.0,
                    -144.0,
                    -224.0,
                    160.0,
                    240.0,
                    -192.0,
                    192.0,
                    112.0,
                    128.0,
                    -56.0,
                    -224.0,
                    96.0,
                    240.0,
                    80.0,
                    -144.0,
                    18.0,
                    -192.0,
                    112.0,
                    88.0,
                    -28.0,
                    -256.0,
                    -224.0,
                    96.0,
                    96.0,
                    40.0,
                    -144.0,
                    80.0
                ]
            ],
            [
                [
                    -208.0,
                    64.0,
                    36.0,
                    -72.0,
                    -144.0,
                    112.0,
                    -160.0,
                    -176.0,
                    64.0,
                    80.0,
                    -208.0,
                    -120.0,
                    -208.0,
                    208.0,
                    -256.0,
                    -80.0,
                    -176.0,
                    -16.0,
                    208.0,
                    104.0,
                    -72.0,
                    -160.0,
                    104.0,
                    22.0,
                    112.0,
                    -240.0,
                    -160.0,
                    -96.0,
                    -18.0,
                    36.0,
                    32.0,
                    22.0
                ]
            ],
            [
                [
                    32.0,
                    -44.0,
                    -112.0,
                    9.0,
                    -192.0,
                    128.0,
                    224.0,
                    -224.0,
                    144.0,
                    -144.0,
                    -80.0,
                    -240.0,
                    240.0,
                    32.0,
                    -208.0,
                    -88.0,
                    240.0,
                    -224.0,
                    208.0,
                    -112.0,
                    -224.0,
                    64.0,
                    208.0,
                    -72.0,
                    -80.0,
                    -120.0,
                    -96.0,
                    -224.0,
                    2.75,
                    -80.0,
                    -176.0,
                    112.0
                ]
            ],
            [
                [
                    208.0,
                    160.0,
                    -192.0,
                    208.0,
                    -48.0,
                    208.0,
                    -208.0,
                    240.0,
                    -208.0,
                    128.0,
                    112.0,
                    128.0,
                    -128.0,
                    128.0,
                    6.5,
                    -224.0,
                    -208.0,
                    -112.0,
                    176.0,
                    -40.0,
                    -112.0,
                    18.0,
                    -88.0,
                    -96.0,
                    -160.0,
                    -80.0,
                    -176.0,
                    36.0,
                    -64.0,
                    -240.0,
                    -144.0,
                    -11.0
                ]
            ],
            [
                [
                    -112.0,
                    192.0,
                    -224.0,
                    72.0,
                    192.0,
                    208.0,
                    -8.0,
                    -48.0,
                    -240.0,
                    -18.0,
                    80.0,
                    -80.0,
                    -176.0,
                    -15.0,
                    -176.0,
                    30.0,
                    -22.0,
                    256.0,
                    -176.0,
                    72.0,
                    -160.0,
                    -40.0,
                    128.0,
                    -1.5,
                    -72.0,
                    192.0,
                    192.0,
                    -60.0,
                    -208.0,
                    -80.0,
                    -160.0,
                    128.0
                ]
            ],
            [
                [
                    72.0,
                    2.75,
                    -240.0,
                    240.0,
                    -256.0,
                    14.0,
                    -36.0,
                    -120.0,
                    192.0,
                    -80.0,
                    32.0,
                    -192.0,
                    -224.0,
                    176.0,
                    -192.0,
                    -192.0,
                    80.0,
                    -144.0,
                    144.0,
                    -224.0,
                    -240.0,
                    -60.0,
                    192.0,
                    -192.0,
                    -256.0,
                    -9.0,
                    -26.0,
                    -32.0,
                    -144.0,
                    104.0,
                    176.0,
                    -24.0
                ]
            ],
            [
                [
                    224.0,
                    112.0,
                    -224.0,
                    224.0,
                    -56.0,
                    64.0,
                    -160.0,
                    11.0,
                    -144.0,
                    80.0,
                    -96.0,
                    256.0,
                    -208.0,
                    32.0,
                    -160.0,
                    -104.0,
                    192.0,
                    0.625,
                    -208.0,
                    120.0,
                    -28.0,
                    -208.0,
                    -8.0,
                    -28.0,
                    44.0,
                    -32.0,
                    52.0,
                    104.0,
                    256.0,
                    30.0,
                    -30.0,
                    112.0
                ]
            ]
        ],
        "scale": [
            [
                [
                    119
                ]
            ],
            [
                [
                    119
                ]
            ],
            [
                [
                    119
                ]
            ],
            [
                [
                    119
                ]
            ],
            [
                [
                    119
                ]
            ],
            [
                [
                    119
                ]
            ],
            [
                [
                    119
                ]
            ],
            [
                [
                    119
                ]
            ],
            [
                [
                    119
                ]
            ],
            [
                [
                    119
                ]
            ],
            [
                [
                    119
                ]
            ],
            [
                [
                    119
                ]
            ],
            [
                [
                    119
                ]
            ],
            [
                [
                    119
                ]
            ],
            [
                [
                    119
                ]
            ],
            [
                [
                    119
                ]
            ],
            [
                [
                    119
                ]
            ],
            [
                [
                    119
                ]
            ],
            [
                [
                    119
                ]
            ],
            [
                [
                    119
                ]
            ],
            [
                [
                    119
                ]
            ],
            [
                [
                    119
                ]
            ],
            [
                [
                    119
                ]
            ],
            [
                [
                    119
                ]
            ],
            [
                [
                    119
                ]
            ],
            [
                [
                    119
                ]
            ],
            [
                [
                    119
                ]
            ],
            [
                [
                    119
                ]
            ],
            [
                [
                    119
                ]
            ],
            [
                [
                    119
                ]
            ],
            [
                [
                    119
                ]
            ],
            [
                [
                    119
                ]
            ]
        ]
    },
    "matmul_1_data": {
        "compressed_weight": [
            [
                [
                    -176.0,
                    240.0,
                    192.0,
                    160.0,
                    -10.0,
                    -144.0,
                    160.0,
                    224.0,
                    -120.0,
                    20.0,
                    -30.0,
                    224.0,
                    -240.0,
                    120.0,
                    60.0,
                    -240.0,
                    112.0,
                    -240.0,
                    128.0,
                    6.5,
                    224.0,
                    -224.0,
                    176.0,
                    -224.0,
                    -80.0,
                    -36.0,
                    240.0,
                    32.0,
                    -120.0,
                    -128.0,
                    192.0,
                    -144.0
                ]
            ],
            [
                [
                    -192.0,
                    -112.0,
                    44.0,
                    28.0,
                    160.0,
                    30.0,
                    -112.0,
                    -44.0,
                    160.0,
                    64.0,
                    240.0,
                    -64.0,
                    26.0,
                    48.0,
                    176.0,
                    -176.0,
                    -48.0,
                    208.0,
                    -240.0,
                    160.0,
                    -44.0,
                    176.0,
                    -256.0,
                    -72.0,
                    -208.0,
                    80.0,
                    -112.0,
                    104.0,
                    224.0,
                    -192.0,
                    192.0,
                    -224.0
                ]
            ],
            [
                [
                    -60.0,
                    -36.0,
                    -5.5,
                    240.0,
                    144.0,
                    -96.0,
                    -120.0,
                    192.0,
                    192.0,
                    5.5,
                    -80.0,
                    256.0,
                    -96.0,
                    -160.0,
                    192.0,
                    160.0,
                    88.0,
                    240.0,
                    224.0,
                    128.0,
                    192.0,
                    -128.0,
                    -176.0,
                    88.0,
                    112.0,
                    -176.0,
                    -52.0,
                    208.0,
                    32.0,
                    40.0,
                    -160.0,
                    13.0
                ]
            ],
            [
                [
                    12.0,
                    -208.0,
                    240.0,
                    36.0,
                    -256.0,
                    144.0,
                    240.0,
                    48.0,
                    -96.0,
                    -160.0,
                    88.0,
                    -160.0,
                    40.0,
                    52.0,
                    240.0,
                    -224.0,
                    -0.013671875,
                    128.0,
                    -160.0,
                    -56.0,
                    -224.0,
                    112.0,
                    -208.0,
                    -52.0,
                    192.0,
                    -14.0,
                    208.0,
                    144.0,
                    208.0,
                    -192.0,
                    -224.0,
                    -224.0
                ]
            ],
            [
                [
                    192.0,
                    72.0,
                    -1.75,
                    -176.0,
                    88.0,
                    -96.0,
                    112.0,
                    -20.0,
                    3.75,
                    144.0,
                    -208.0,
                    40.0,
                    -160.0,
                    160.0,
                    -5.5,
                    256.0,
                    -160.0,
                    240.0,
                    160.0,
                    -10.0,
                    160.0,
                    52.0,
                    80.0,
                    208.0,
                    -224.0,
                    176.0,
                    -60.0,
                    -88.0,
                    256.0,
                    144.0,
                    -7.5,
                    -40.0
                ]
            ],
            [
                [
                    192.0,
                    -208.0,
                    104.0,
                    144.0,
                    160.0,
                    -88.0,
                    144.0,
                    -144.0,
                    -72.0,
                    -44.0,
                    22.0,
                    -192.0,
                    -48.0,
                    -256.0,
                    128.0,
                    176.0,
                    -192.0,
                    104.0,
                    160.0,
                    240.0,
                    176.0,
                    -40.0,
                    240.0,
                    240.0,
                    1.875,
                    128.0,
                    208.0,
                    -12.0,
                    192.0,
                    104.0,
                    -104.0,
                    144.0
                ]
            ],
            [
                [
                    36.0,
                    -208.0,
                    -56.0,
                    -224.0,
                    -12.0,
                    -36.0,
                    -40.0,
                    44.0,
                    -192.0,
                    224.0,
                    96.0,
                    160.0,
                    208.0,
                    44.0,
                    -240.0,
                    112.0,
                    36.0,
                    160.0,
                    16.0,
                    160.0,
                    256.0,
                    -80.0,
                    -176.0,
                    -56.0,
                    128.0,
                    -32.0,
                    44.0,
                    -192.0,
                    112.0,
                    -112.0,
                    -160.0,
                    192.0
                ]
            ],
            [
                [
                    32.0,
                    -8.0,
                    208.0,
                    -208.0,
                    104.0,
                    -88.0,
                    -160.0,
                    88.0,
                    -72.0,
                    -88.0,
                    224.0,
                    -160.0,
                    6.0,
                    -240.0,
                    -176.0,
                    192.0,
                    144.0,
                    30.0,
                    -144.0,
                    30.0,
                    -256.0,
                    112.0,
                    112.0,
                    72.0,
                    56.0,
                    -224.0,
                    -128.0,
                    40.0,
                    -56.0,
                    256.0,
                    224.0,
                    -176.0
                ]
            ],
            [
                [
                    48.0,
                    104.0,
                    -192.0,
                    -96.0,
                    112.0,
                    208.0,
                    -80.0,
                    -128.0,
                    160.0,
                    44.0,
                    -12.0,
                    -128.0,
                    -224.0,
                    -240.0,
                    40.0,
                    -160.0,
                    240.0,
                    -208.0,
                    -24.0,
                    -52.0,
                    -144.0,
                    128.0,
                    72.0,
                    112.0,
                    -208.0,
                    -72.0,
                    10.0,
                    -36.0,
                    -240.0,
                    -160.0,
                    224.0,
                    -176.0
                ]
            ],
            [
                [
                    176.0,
                    160.0,
                    -56.0,
                    -16.0,
                    160.0,
                    96.0,
                    176.0,
                    128.0,
                    96.0,
                    208.0,
                    160.0,
                    -160.0,
                    128.0,
                    -208.0,
                    -36.0,
                    -52.0,
                    -160.0,
                    224.0,
                    -208.0,
                    -256.0,
                    -88.0,
                    256.0,
                    -120.0,
                    176.0,
                    -160.0,
                    44.0,
                    240.0,
                    112.0,
                    240.0,
                    40.0,
                    240.0,
                    176.0
                ]
            ],
            [
                [
                    144.0,
                    192.0,
                    64.0,
                    -72.0,
                    14.0,
                    -144.0,
                    144.0,
                    -176.0,
                    40.0,
                    18.0,
                    88.0,
                    128.0,
                    -192.0,
                    64.0,
                    -44.0,
                    60.0,
                    96.0,
                    44.0,
                    120.0,
                    10.0,
                    -20.0,
                    -112.0,
                    -144.0,
                    96.0,
                    104.0,
                    -160.0,
                    240.0,
                    88.0,
                    16.0,
                    176.0,
                    -7.0,
                    -12.0
                ]
            ],
            [
                [
                    -120.0,
                    -176.0,
                    112.0,
                    176.0,
                    88.0,
                    -64.0,
                    40.0,
                    32.0,
                    224.0,
                    -56.0,
                    -176.0,
                    192.0,
                    208.0,
                    -224.0,
                    -160.0,
                    72.0,
                    144.0,
                    56.0,
                    -160.0,
                    -192.0,
                    3.0,
                    160.0,
                    -144.0,
                    -224.0,
                    26.0,
                    -160.0,
                    -224.0,
                    144.0,
                    160.0,
                    -52.0,
                    -104.0,
                    -112.0
                ]
            ],
            [
                [
                    -72.0,
                    40.0,
                    14.0,
                    -72.0,
                    72.0,
                    88.0,
                    30.0,
                    -56.0,
                    64.0,
                    48.0,
                    -80.0,
                    -104.0,
                    24.0,
                    56.0,
                    56.0,
                    -60.0,
                    32.0,
                    256.0,
                    -36.0,
                    176.0,
                    -208.0,
                    192.0,
                    224.0,
                    -120.0,
                    -256.0,
                    -9.0,
                    -160.0,
                    240.0,
                    208.0,
                    240.0,
                    52.0,
                    8.0
                ]
            ],
            [
                [
                    176.0,
                    80.0,
                    -128.0,
                    224.0,
                    -30.0,
                    144.0,
                    0.46875,
                    -160.0,
                    -104.0,
                    40.0,
                    -176.0,
                    -256.0,
                    -32.0,
                    128.0,
                    60.0,
                    -88.0,
                    112.0,
                    -8.0,
                    256.0,
                    144.0,
                    176.0,
                    -120.0,
                    -176.0,
                    -160.0,
                    -36.0,
                    6.0,
                    -160.0,
                    144.0,
                    192.0,
                    -96.0,
                    4.0,
                    48.0
                ]
            ],
            [
                [
                    112.0,
                    -176.0,
                    -112.0,
                    120.0,
                    36.0,
                    208.0,
                    -26.0,
                    -48.0,
                    -96.0,
                    -144.0,
                    80.0,
                    -120.0,
                    192.0,
                    -120.0,
                    88.0,
                    36.0,
                    64.0,
                    208.0,
                    -176.0,
                    -176.0,
                    -192.0,
                    -224.0,
                    18.0,
                    -176.0,
                    160.0,
                    -240.0,
                    -64.0,
                    -14.0,
                    -144.0,
                    -72.0,
                    -144.0,
                    -112.0
                ]
            ],
            [
                [
                    224.0,
                    -44.0,
                    -60.0,
                    56.0,
                    88.0,
                    80.0,
                    -208.0,
                    40.0,
                    120.0,
                    144.0,
                    44.0,
                    -192.0,
                    -208.0,
                    -88.0,
                    224.0,
                    -14.0,
                    208.0,
                    -20.0,
                    128.0,
                    -7.5,
                    104.0,
                    -96.0,
                    192.0,
                    -120.0,
                    -256.0,
                    112.0,
                    88.0,
                    80.0,
                    96.0,
                    44.0,
                    -192.0,
                    88.0
                ]
            ],
            [
                [
                    -256.0,
                    -160.0,
                    -40.0,
                    -64.0,
                    -192.0,
                    -36.0,
                    64.0,
                    -64.0,
                    104.0,
                    -144.0,
                    -176.0,
                    128.0,
                    88.0,
                    -36.0,
                    -192.0,
                    80.0,
                    128.0,
                    -176.0,
                    96.0,
                    -72.0,
                    208.0,
                    128.0,
                    -112.0,
                    224.0,
                    -240.0,
                    -160.0,
                    -128.0,
                    120.0,
                    13.0,
                    -18.0,
                    -144.0,
                    128.0
                ]
            ],
            [
                [
                    -192.0,
                    -128.0,
                    160.0,
                    -26.0,
                    192.0,
                    52.0,
                    144.0,
                    -160.0,
                    -96.0,
                    -64.0,
                    -3.0,
                    -14.0,
                    160.0,
                    -160.0,
                    176.0,
                    192.0,
                    -224.0,
                    -256.0,
                    -104.0,
                    -52.0,
                    240.0,
                    -224.0,
                    144.0,
                    -13.0,
                    -192.0,
                    -72.0,
                    -60.0,
                    -128.0,
                    -104.0,
                    -40.0,
                    240.0,
                    -22.0
                ]
            ],
            [
                [
                    224.0,
                    -240.0,
                    -224.0,
                    -240.0,
                    88.0,
                    -144.0,
                    40.0,
                    144.0,
                    -88.0,
                    -128.0,
                    112.0,
                    -12.0,
                    -176.0,
                    -208.0,
                    120.0,
                    192.0,
                    192.0,
                    5.0,
                    -176.0,
                    -144.0,
                    -24.0,
                    176.0,
                    80.0,
                    -112.0,
                    128.0,
                    -32.0,
                    240.0,
                    -36.0,
                    176.0,
                    -256.0,
                    112.0,
                    -52.0
                ]
            ],
            [
                [
                    -0.5,
                    -160.0,
                    224.0,
                    -160.0,
                    32.0,
                    48.0,
                    176.0,
                    -18.0,
                    176.0,
                    12.0,
                    240.0,
                    112.0,
                    208.0,
                    224.0,
                    160.0,
                    -192.0,
                    -192.0,
                    60.0,
                    -120.0,
                    -60.0,
                    -160.0,
                    128.0,
                    176.0,
                    -192.0,
                    9.0,
                    -52.0,
                    144.0,
                    -18.0,
                    120.0,
                    32.0,
                    240.0,
                    -40.0
                ]
            ],
            [
                [
                    256.0,
                    -44.0,
                    -160.0,
                    144.0,
                    -120.0,
                    32.0,
                    72.0,
                    -160.0,
                    -240.0,
                    256.0,
                    160.0,
                    -192.0,
                    176.0,
                    -120.0,
                    -128.0,
                    144.0,
                    128.0,
                    176.0,
                    -192.0,
                    128.0,
                    -15.0,
                    -88.0,
                    120.0,
                    176.0,
                    -88.0,
                    -176.0,
                    256.0,
                    208.0,
                    -104.0,
                    160.0,
                    -208.0,
                    208.0
                ]
            ],
            [
                [
                    144.0,
                    -160.0,
                    -104.0,
                    48.0,
                    -72.0,
                    120.0,
                    48.0,
                    -144.0,
                    56.0,
                    -256.0,
                    -192.0,
                    -176.0,
                    -72.0,
                    -256.0,
                    224.0,
                    -128.0,
                    -120.0,
                    -64.0,
                    224.0,
                    -72.0,
                    -36.0,
                    -104.0,
                    240.0,
                    -72.0,
                    -208.0,
                    80.0,
                    112.0,
                    -64.0,
                    -144.0,
                    -48.0,
                    -32.0,
                    256.0
                ]
            ],
            [
                [
                    176.0,
                    60.0,
                    -160.0,
                    96.0,
                    128.0,
                    -224.0,
                    -60.0,
                    -88.0,
                    36.0,
                    80.0,
                    -160.0,
                    -16.0,
                    256.0,
                    -240.0,
                    -64.0,
                    -88.0,
                    -48.0,
                    192.0,
                    -32.0,
                    192.0,
                    40.0,
                    -40.0,
                    -128.0,
                    160.0,
                    72.0,
                    -144.0,
                    -192.0,
                    -192.0,
                    208.0,
                    -48.0,
                    160.0,
                    208.0
                ]
            ],
            [
                [
                    -144.0,
                    -240.0,
                    -160.0,
                    144.0,
                    -256.0,
                    32.0,
                    -160.0,
                    144.0,
                    -11.0,
                    26.0,
                    -104.0,
                    -22.0,
                    -240.0,
                    160.0,
                    208.0,
                    128.0,
                    -2.25,
                    176.0,
                    -256.0,
                    88.0,
                    144.0,
                    -88.0,
                    176.0,
                    -256.0,
                    64.0,
                    -104.0,
                    64.0,
                    -128.0,
                    -144.0,
                    64.0,
                    -1.625,
                    -160.0
                ]
            ],
            [
                [
                    192.0,
                    192.0,
                    26.0,
                    104.0,
                    -24.0,
                    160.0,
                    176.0,
                    128.0,
                    -128.0,
                    -240.0,
                    80.0,
                    -44.0,
                    208.0,
                    192.0,
                    18.0,
                    -64.0,
                    112.0,
                    104.0,
                    96.0,
                    176.0,
                    40.0,
                    8.0,
                    9.0,
                    192.0,
                    -72.0,
                    176.0,
                    2.5,
                    -208.0,
                    -26.0,
                    -104.0,
                    14.0,
                    176.0
                ]
            ],
            [
                [
                    -160.0,
                    -13.0,
                    44.0,
                    144.0,
                    224.0,
                    26.0,
                    208.0,
                    -80.0,
                    128.0,
                    128.0,
                    26.0,
                    -160.0,
                    -60.0,
                    -104.0,
                    240.0,
                    72.0,
                    208.0,
                    -104.0,
                    -36.0,
                    36.0,
                    -72.0,
                    -22.0,
                    52.0,
                    -240.0,
                    -80.0,
                    -256.0,
                    -9.0,
                    56.0,
                    -208.0,
                    -128.0,
                    160.0,
                    176.0
                ]
            ],
            [
                [
                    -56.0,
                    160.0,
                    -112.0,
                    104.0,
                    24.0,
                    -30.0,
                    80.0,
                    -256.0,
                    -176.0,
                    -104.0,
                    96.0,
                    104.0,
                    96.0,
                    144.0,
                    -208.0,
                    -208.0,
                    176.0,
                    -72.0,
                    36.0,
                    1.75,
                    64.0,
                    -224.0,
                    144.0,
                    -192.0,
                    96.0,
                    -52.0,
                    -4.0,
                    88.0,
                    -64.0,
                    -240.0,
                    240.0,
                    12.0
                ]
            ],
            [
                [
                    128.0,
                    16.0,
                    160.0,
                    32.0,
                    -192.0,
                    72.0,
                    -160.0,
                    160.0,
                    96.0,
                    224.0,
                    64.0,
                    -144.0,
                    30.0,
                    144.0,
                    112.0,
                    -80.0,
                    80.0,
                    224.0,
                    96.0,
                    -64.0,
                    208.0,
                    160.0,
                    176.0,
                    -208.0,
                    -104.0,
                    144.0,
                    -112.0,
                    -224.0,
                    96.0,
                    160.0,
                    72.0,
                    -80.0
                ]
            ],
            [
                [
                    30.0,
                    -240.0,
                    32.0,
                    176.0,
                    -224.0,
                    -60.0,
                    -176.0,
                    -60.0,
                    -256.0,
                    160.0,
                    -1.875,
                    -32.0,
                    52.0,
                    176.0,
                    -104.0,
                    -120.0,
                    -224.0,
                    -120.0,
                    -224.0,
                    -240.0,
                    28.0,
                    -160.0,
                    -224.0,
                    208.0,
                    -176.0,
                    -208.0,
                    240.0,
                    88.0,
                    112.0,
                    32.0,
                    -224.0,
                    176.0
                ]
            ],
            [
                [
                    -40.0,
                    -56.0,
                    -192.0,
                    -192.0,
                    11.0,
                    36.0,
                    10.0,
                    56.0,
                    192.0,
                    2.25,
                    -60.0,
                    -128.0,
                    -96.0,
                    32.0,
                    144.0,
                    -30.0,
                    -240.0,
                    -160.0,
                    -208.0,
                    -88.0,
                    96.0,
                    48.0,
                    80.0,
                    -24.0,
                    -192.0,
                    -104.0,
                    5.5,
                    -1.5,
                    -128.0,
                    160.0,
                    -36.0,
                    176.0
                ]
            ],
            [
                [
                    -120.0,
                    224.0,
                    -192.0,
                    144.0,
                    -240.0,
                    -128.0,
                    192.0,
                    -80.0,
                    224.0,
                    224.0,
                    160.0,
                    -52.0,
                    176.0,
                    -22.0,
                    -192.0,
                    176.0,
                    160.0,
                    -192.0,
                    192.0,
                    10.0,
                    128.0,
                    -120.0,
                    -144.0,
                    176.0,
                    52.0,
                    -176.0,
                    -72.0,
                    176.0,
                    -16.0,
                    -80.0,
                    -80.0,
                    160.0
                ]
            ],
            [
                [
                    -24.0,
                    224.0,
                    -96.0,
                    128.0,
                    -112.0,
                    144.0,
                    -240.0,
                    -192.0,
                    -120.0,
                    192.0,
                    -88.0,
                    -8.0,
                    -208.0,
                    36.0,
                    -208.0,
                    -176.0,
                    160.0,
                    -128.0,
                    -224.0,
                    52.0,
                    -176.0,
                    -224.0,
                    176.0,
                    -52.0,
                    192.0,
                    128.0,
                    -160.0,
                    -208.0,
                    -176.0,
                    -2.75,
                    -72.0,
                    176.0
                ]
            ]
        ],
        "scale": [
            [
                [
                    119
                ]
            ],
            [
                [
                    119
                ]
            ],
            [
                [
                    119
                ]
            ],
            [
                [
                    119
                ]
            ],
            [
                [
                    119
                ]
            ],
            [
                [
                    119
                ]
            ],
            [
                [
                    119
                ]
            ],
            [
                [
                    119
                ]
            ],
            [
                [
                    119
                ]
            ],
            [
                [
                    119
                ]
            ],
            [
                [
                    119
                ]
            ],
            [
                [
                    119
                ]
            ],
            [
                [
                    119
                ]
            ],
            [
                [
                    119
                ]
            ],
            [
                [
                    119
                ]
            ],
            [
                [
                    119
                ]
            ],
            [
                [
                    119
                ]
            ],
            [
                [
                    119
                ]
            ],
            [
                [
                    119
                ]
            ],
            [
                [
                    119
                ]
            ],
            [
                [
                    119
                ]
            ],
            [
                [
                    119
                ]
            ],
            [
                [
                    119
                ]
            ],
            [
                [
                    119
                ]
            ],
            [
                [
                    119
                ]
            ],
            [
                [
                    119
                ]
            ],
            [
                [
                    119
                ]
            ],
            [
                [
                    119
                ]
            ],
            [
                [
                    119
                ]
            ],
            [
                [
                    119
                ]
            ],
            [
                [
                    119
                ]
            ],
            [
                [
                    119
                ]
            ]
        ]
    },
    "gather_2_data": {
        "compressed_weight": [
            [
                [
                    72.0,
                    -120.0,
                    -240.0,
                    -240.0,
                    160.0,
                    208.0,
                    56.0,
                    120.0,
                    22.0,
                    224.0,
                    160.0,
                    -256.0,
                    176.0,
                    -240.0,
                    120.0,
                    -160.0,
                    192.0,
                    22.0,
                    -104.0,
                    -40.0,
                    -240.0,
                    -192.0,
                    88.0,
                    72.0,
                    60.0,
                    -60.0,
                    256.0,
                    240.0,
                    96.0,
                    80.0,
                    96.0,
                    -56.0
                ]
            ],
            [
                [
                    -192.0,
                    112.0,
                    13.0,
                    -96.0,
                    -7.5,
                    192.0,
                    224.0,
                    -72.0,
                    36.0,
                    -88.0,
                    48.0,
                    -80.0,
                    -56.0,
                    192.0,
                    -144.0,
                    64.0,
                    -208.0,
                    176.0,
                    144.0,
                    -128.0,
                    192.0,
                    -224.0,
                    -80.0,
                    -176.0,
                    -26.0,
                    144.0,
                    -144.0,
                    -224.0,
                    -48.0,
                    -160.0,
                    -208.0,
                    40.0
                ]
            ],
            [
                [
                    -104.0,
                    88.0,
                    -160.0,
                    224.0,
                    -72.0,
                    -208.0,
                    64.0,
                    224.0,
                    -30.0,
                    240.0,
                    -0.0546875,
                    -40.0,
                    60.0,
                    256.0,
                    224.0,
                    -20.0,
                    128.0,
                    -1.375,
                    15.0,
                    144.0,
                    -44.0,
                    120.0,
                    112.0,
                    224.0,
                    -192.0,
                    120.0,
                    224.0,
                    240.0,
                    -256.0,
                    192.0,
                    240.0,
                    240.0
                ]
            ]
        ],
        "scale": [
            [
                [
                    119
                ]
            ],
            [
                [
                    119
                ]
            ],
            [
                [
                    119
                ]
            ]
        ]
    }
}