{
    "symmetric_weights_decompressor_q_proj_weight_0": [
        [
            [
                -0.0135650634765625
            ],
            [
                -0.014251708984375
            ]
        ],
        [
            [
                0.015411376953125
            ],
            [
                -0.01557159423828125
            ]
        ],
        [
            [
                -0.01427459716796875
            ],
            [
                -0.01519012451171875
            ]
        ],
        [
            [
                0.01224517822265625
            ],
            [
                0.01528167724609375
            ]
        ],
        [
            [
                0.01348876953125
            ],
            [
                -0.01556396484375
            ]
        ],
        [
            [
                0.01401519775390625
            ],
            [
                0.0153350830078125
            ]
        ],
        [
            [
                0.01560211181640625
            ],
            [
                0.01523590087890625
            ]
        ],
        [
            [
                0.0160675048828125
            ],
            [
                -0.0149993896484375
            ]
        ],
        [
            [
                -0.01445770263671875
            ],
            [
                0.01251220703125
            ]
        ],
        [
            [
                -0.0155487060546875
            ],
            [
                0.0126495361328125
            ]
        ],
        [
            [
                -0.01306915283203125
            ],
            [
                -0.01422882080078125
            ]
        ],
        [
            [
                -0.0154571533203125
            ],
            [
                -0.015594482421875
            ]
        ],
        [
            [
                -0.01308441162109375
            ],
            [
                -0.01392364501953125
            ]
        ],
        [
            [
                -0.01512908935546875
            ],
            [
                0.01303863525390625
            ]
        ],
        [
            [
                -0.0134124755859375
            ],
            [
                -0.0130462646484375
            ]
        ],
        [
            [
                0.01467132568359375
            ],
            [
                0.01568603515625
            ]
        ],
        [
            [
                -0.01470184326171875
            ],
            [
                0.0147705078125
            ]
        ],
        [
            [
                -0.01477813720703125
            ],
            [
                -0.01468658447265625
            ]
        ],
        [
            [
                -0.0128021240234375
            ],
            [
                0.0122833251953125
            ]
        ],
        [
            [
                -0.0158233642578125
            ],
            [
                0.0131378173828125
            ]
        ],
        [
            [
                -0.01537322998046875
            ],
            [
                -0.01543426513671875
            ]
        ],
        [
            [
                -0.01548004150390625
            ],
            [
                0.01435089111328125
            ]
        ],
        [
            [
                -0.0130462646484375
            ],
            [
                0.01294708251953125
            ]
        ],
        [
            [
                0.01348876953125
            ],
            [
                0.01446533203125
            ]
        ],
        [
            [
                -0.0157470703125
            ],
            [
                -0.014892578125
            ]
        ],
        [
            [
                0.01482391357421875
            ],
            [
                -0.01473236083984375
            ]
        ],
        [
            [
                0.0155029296875
            ],
            [
                0.0135040283203125
            ]
        ],
        [
            [
                0.01456451416015625
            ],
            [
                -0.016326904296875
            ]
        ],
        [
            [
                -0.01509857177734375
            ],
            [
                -0.012847900390625
            ]
        ],
        [
            [
                -0.0152130126953125
            ],
            [
                0.01459503173828125
            ]
        ],
        [
            [
                -0.0153350830078125
            ],
            [
                -0.01287078857421875
            ]
        ],
        [
            [
                0.0136871337890625
            ],
            [
                0.014801025390625
            ]
        ],
        [
            [
                0.01520538330078125
            ],
            [
                -0.01514434814453125
            ]
        ],
        [
            [
                -0.01471710205078125
            ],
            [
                0.0155792236328125
            ]
        ],
        [
            [
                -0.01485443115234375
            ],
            [
                0.0147857666015625
            ]
        ],
        [
            [
                0.01512908935546875
            ],
            [
                -0.01381683349609375
            ]
        ],
        [
            [
                -0.015838623046875
            ],
            [
                -0.01444244384765625
            ]
        ],
        [
            [
                -0.0146636962890625
            ],
            [
                -0.01299285888671875
            ]
        ],
        [
            [
                -0.01495361328125
            ],
            [
                -0.014801025390625
            ]
        ],
        [
            [
                -0.01396942138671875
            ],
            [
                0.0134124755859375
            ]
        ],
        [
            [
                -0.01490020751953125
            ],
            [
                0.015045166015625
            ]
        ],
        [
            [
                -0.01543426513671875
            ],
            [
                0.01514434814453125
            ]
        ],
        [
            [
                0.01428985595703125
            ],
            [
                0.0141754150390625
            ]
        ],
        [
            [
                0.014923095703125
            ],
            [
                0.01470947265625
            ]
        ],
        [
            [
                -0.01654052734375
            ],
            [
                0.01470947265625
            ]
        ],
        [
            [
                0.0150299072265625
            ],
            [
                0.0132293701171875
            ]
        ],
        [
            [
                -0.0144500732421875
            ],
            [
                -0.014556884765625
            ]
        ],
        [
            [
                -0.01354217529296875
            ],
            [
                -0.01436614990234375
            ]
        ],
        [
            [
                0.01250457763671875
            ],
            [
                0.014495849609375
            ]
        ],
        [
            [
                -0.01361846923828125
            ],
            [
                -0.01445770263671875
            ]
        ],
        [
            [
                -0.0148162841796875
            ],
            [
                0.01213836669921875
            ]
        ],
        [
            [
                -0.0125274658203125
            ],
            [
                -0.0152587890625
            ]
        ],
        [
            [
                -0.01308441162109375
            ],
            [
                0.01410675048828125
            ]
        ],
        [
            [
                -0.0150146484375
            ],
            [
                0.01324462890625
            ]
        ],
        [
            [
                -0.016021728515625
            ],
            [
                0.015289306640625
            ]
        ],
        [
            [
                -0.0143280029296875
            ],
            [
                -0.0139617919921875
            ]
        ],
        [
            [
                -0.0147247314453125
            ],
            [
                0.0161590576171875
            ]
        ],
        [
            [
                -0.0119476318359375
            ],
            [
                0.0154571533203125
            ]
        ],
        [
            [
                -0.01476287841796875
            ],
            [
                -0.0137176513671875
            ]
        ],
        [
            [
                0.01558685302734375
            ],
            [
                0.013427734375
            ]
        ],
        [
            [
                -0.0167694091796875
            ],
            [
                0.01517486572265625
            ]
        ],
        [
            [
                0.01235198974609375
            ],
            [
                -0.01605224609375
            ]
        ],
        [
            [
                0.015960693359375
            ],
            [
                -0.015167236328125
            ]
        ],
        [
            [
                0.01517486572265625
            ],
            [
                0.0162200927734375
            ]
        ]
    ],
    "symmetric_weights_decompressor_k_proj_weight_0": [
        [
            [
                0.0150604248046875
            ],
            [
                -0.0138702392578125
            ]
        ],
        [
            [
                -0.01486968994140625
            ],
            [
                -0.01424407958984375
            ]
        ],
        [
            [
                0.01526641845703125
            ],
            [
                -0.0126800537109375
            ]
        ],
        [
            [
                -0.01436614990234375
            ],
            [
                -0.0157012939453125
            ]
        ],
        [
            [
                -0.01470947265625
            ],
            [
                0.013916015625
            ]
        ],
        [
            [
                -0.01371002197265625
            ],
            [
                -0.01558685302734375
            ]
        ],
        [
            [
                0.01265716552734375
            ],
            [
                0.01399993896484375
            ]
        ],
        [
            [
                -0.01520538330078125
            ],
            [
                -0.01537322998046875
            ]
        ],
        [
            [
                0.01538848876953125
            ],
            [
                0.0160064697265625
            ]
        ],
        [
            [
                -0.01537322998046875
            ],
            [
                -0.01198577880859375
            ]
        ],
        [
            [
                -0.01551055908203125
            ],
            [
                -0.01419830322265625
            ]
        ],
        [
            [
                -0.01544189453125
            ],
            [
                -0.0127410888671875
            ]
        ],
        [
            [
                0.014373779296875
            ],
            [
                -0.01462554931640625
            ]
        ],
        [
            [
                0.01326751708984375
            ],
            [
                -0.015716552734375
            ]
        ],
        [
            [
                -0.01415252685546875
            ],
            [
                -0.01483917236328125
            ]
        ],
        [
            [
                -0.01505279541015625
            ],
            [
                0.0154571533203125
            ]
        ],
        [
            [
                0.01538848876953125
            ],
            [
                -0.016021728515625
            ]
        ],
        [
            [
                -0.013916015625
            ],
            [
                -0.01514434814453125
            ]
        ],
        [
            [
                0.01401519775390625
            ],
            [
                -0.01239776611328125
            ]
        ],
        [
            [
                -0.01540374755859375
            ],
            [
                -0.0133209228515625
            ]
        ],
        [
            [
                0.014617919921875
            ],
            [
                0.01727294921875
            ]
        ],
        [
            [
                0.0156707763671875
            ],
            [
                -0.0155792236328125
            ]
        ],
        [
            [
                0.01384735107421875
            ],
            [
                0.01262664794921875
            ]
        ],
        [
            [
                -0.0143890380859375
            ],
            [
                0.015106201171875
            ]
        ],
        [
            [
                0.0154571533203125
            ],
            [
                -0.01403045654296875
            ]
        ],
        [
            [
                0.0149993896484375
            ],
            [
                0.012847900390625
            ]
        ],
        [
            [
                0.01552581787109375
            ],
            [
                -0.01554107666015625
            ]
        ],
        [
            [
                0.01503753662109375
            ],
            [
                0.01519775390625
            ]
        ],
        [
            [
                0.0144195556640625
            ],
            [
                -0.01325225830078125
            ]
        ],
        [
            [
                -0.0159454345703125
            ],
            [
                -0.01555633544921875
            ]
        ],
        [
            [
                -0.01416015625
            ],
            [
                -0.01580810546875
            ]
        ],
        [
            [
                -0.01446533203125
            ],
            [
                -0.01375579833984375
            ]
        ],
        [
            [
                0.01214599609375
            ],
            [
                -0.0137786865234375
            ]
        ],
        [
            [
                0.01497650146484375
            ],
            [
                0.0144805908203125
            ]
        ],
        [
            [
                -0.01474761962890625
            ],
            [
                -0.0155181884765625
            ]
        ],
        [
            [
                -0.01508331298828125
            ],
            [
                -0.01496124267578125
            ]
        ],
        [
            [
                -0.01544189453125
            ],
            [
                0.014678955078125
            ]
        ],
        [
            [
                -0.01329803466796875
            ],
            [
                -0.0157012939453125
            ]
        ],
        [
            [
                0.01535797119140625
            ],
            [
                -0.0161590576171875
            ]
        ],
        [
            [
                0.01480865478515625
            ],
            [
                -0.01407623291015625
            ]
        ],
        [
            [
                0.01212310791015625
            ],
            [
                0.01406097412109375
            ]
        ],
        [
            [
                0.012939453125
            ],
            [
                0.01445770263671875
            ]
        ],
        [
            [
                0.01476287841796875
            ],
            [
                -0.01544189453125
            ]
        ],
        [
            [
                0.0135650634765625
            ],
            [
                0.01358795166015625
            ]
        ],
        [
            [
                -0.0150299072265625
            ],
            [
                -0.014190673828125
            ]
        ],
        [
            [
                0.01522064208984375
            ],
            [
                0.01520538330078125
            ]
        ],
        [
            [
                0.0146942138671875
            ],
            [
                -0.01531982421875
            ]
        ],
        [
            [
                0.01305389404296875
            ],
            [
                0.0139312744140625
            ]
        ],
        [
            [
                0.01507568359375
            ],
            [
                -0.01461029052734375
            ]
        ],
        [
            [
                -0.015899658203125
            ],
            [
                0.01421356201171875
            ]
        ],
        [
            [
                0.01385498046875
            ],
            [
                0.01284027099609375
            ]
        ],
        [
            [
                0.01535797119140625
            ],
            [
                0.0152740478515625
            ]
        ],
        [
            [
                -0.0144805908203125
            ],
            [
                0.01386260986328125
            ]
        ],
        [
            [
                0.0132598876953125
            ],
            [
                -0.0147705078125
            ]
        ],
        [
            [
                -0.01397705078125
            ],
            [
                0.01549530029296875
            ]
        ],
        [
            [
                0.0145111083984375
            ],
            [
                -0.0167694091796875
            ]
        ],
        [
            [
                -0.0148773193359375
            ],
            [
                0.01532745361328125
            ]
        ],
        [
            [
                -0.0145263671875
            ],
            [
                -0.01387786865234375
            ]
        ],
        [
            [
                0.01473236083984375
            ],
            [
                0.016326904296875
            ]
        ],
        [
            [
                -0.01299285888671875
            ],
            [
                0.0149993896484375
            ]
        ],
        [
            [
                0.013214111328125
            ],
            [
                -0.01541900634765625
            ]
        ],
        [
            [
                -0.01316070556640625
            ],
            [
                0.0142822265625
            ]
        ],
        [
            [
                0.01425933837890625
            ],
            [
                -0.01212310791015625
            ]
        ],
        [
            [
                0.0168914794921875
            ],
            [
                -0.01407623291015625
            ]
        ]
    ],
    "symmetric_weights_decompressor_v_proj_weight_0": [
        [
            [
                -0.0145721435546875
            ],
            [
                -0.01470184326171875
            ]
        ],
        [
            [
                -0.01517486572265625
            ],
            [
                -0.01496124267578125
            ]
        ],
        [
            [
                0.013580322265625
            ],
            [
                -0.0135040283203125
            ]
        ],
        [
            [
                0.0142669677734375
            ],
            [
                0.014251708984375
            ]
        ],
        [
            [
                0.0146942138671875
            ],
            [
                0.0164337158203125
            ]
        ],
        [
            [
                -0.0142364501953125
            ],
            [
                -0.0138397216796875
            ]
        ],
        [
            [
                -0.0160064697265625
            ],
            [
                0.01447296142578125
            ]
        ],
        [
            [
                -0.01551055908203125
            ],
            [
                -0.013824462890625
            ]
        ],
        [
            [
                -0.0135650634765625
            ],
            [
                0.0128326416015625
            ]
        ],
        [
            [
                -0.01386260986328125
            ],
            [
                -0.0139312744140625
            ]
        ],
        [
            [
                -0.0142059326171875
            ],
            [
                0.01422119140625
            ]
        ],
        [
            [
                -0.01546478271484375
            ],
            [
                -0.0157318115234375
            ]
        ],
        [
            [
                -0.01416015625
            ],
            [
                -0.01371002197265625
            ]
        ],
        [
            [
                -0.0151519775390625
            ],
            [
                0.0147857666015625
            ]
        ],
        [
            [
                -0.0164031982421875
            ],
            [
                -0.01531982421875
            ]
        ],
        [
            [
                -0.01323699951171875
            ],
            [
                -0.01331329345703125
            ]
        ],
        [
            [
                0.0156097412109375
            ],
            [
                0.01561737060546875
            ]
        ],
        [
            [
                0.0145721435546875
            ],
            [
                0.0152587890625
            ]
        ],
        [
            [
                0.01342010498046875
            ],
            [
                0.013824462890625
            ]
        ],
        [
            [
                0.01375579833984375
            ],
            [
                -0.012847900390625
            ]
        ],
        [
            [
                0.015960693359375
            ],
            [
                0.0157623291015625
            ]
        ],
        [
            [
                0.01479339599609375
            ],
            [
                0.012969970703125
            ]
        ],
        [
            [
                0.0158233642578125
            ],
            [
                -0.0147552490234375
            ]
        ],
        [
            [
                0.0137481689453125
            ],
            [
                0.01409912109375
            ]
        ],
        [
            [
                -0.01373291015625
            ],
            [
                -0.01508331298828125
            ]
        ],
        [
            [
                -0.01456451416015625
            ],
            [
                0.0151824951171875
            ]
        ],
        [
            [
                -0.01549530029296875
            ],
            [
                0.0151519775390625
            ]
        ],
        [
            [
                0.012725830078125
            ],
            [
                -0.01461029052734375
            ]
        ],
        [
            [
                -0.01531982421875
            ],
            [
                0.0142974853515625
            ]
        ],
        [
            [
                0.01558685302734375
            ],
            [
                0.01357269287109375
            ]
        ],
        [
            [
                -0.01500701904296875
            ],
            [
                -0.0123291015625
            ]
        ],
        [
            [
                -0.01526641845703125
            ],
            [
                0.0153961181640625
            ]
        ],
        [
            [
                0.01474761962890625
            ],
            [
                0.0154876708984375
            ]
        ],
        [
            [
                -0.01513671875
            ],
            [
                0.015350341796875
            ]
        ],
        [
            [
                0.0153961181640625
            ],
            [
                0.01528167724609375
            ]
        ],
        [
            [
                0.0152435302734375
            ],
            [
                0.0153656005859375
            ]
        ],
        [
            [
                0.0149993896484375
            ],
            [
                -0.01336669921875
            ]
        ],
        [
            [
                0.01336669921875
            ],
            [
                0.0147857666015625
            ]
        ],
        [
            [
                0.01328277587890625
            ],
            [
                -0.0137176513671875
            ]
        ],
        [
            [
                -0.01544952392578125
            ],
            [
                0.01535797119140625
            ]
        ],
        [
            [
                0.0138702392578125
            ],
            [
                -0.01288604736328125
            ]
        ],
        [
            [
                0.01401519775390625
            ],
            [
                -0.0158843994140625
            ]
        ],
        [
            [
                0.01477813720703125
            ],
            [
                0.01238250732421875
            ]
        ],
        [
            [
                0.01261138916015625
            ],
            [
                -0.01371002197265625
            ]
        ],
        [
            [
                0.01448822021484375
            ],
            [
                -0.0145416259765625
            ]
        ],
        [
            [
                0.01453399658203125
            ],
            [
                0.0154571533203125
            ]
        ],
        [
            [
                0.014251708984375
            ],
            [
                -0.0150604248046875
            ]
        ],
        [
            [
                -0.0154266357421875
            ],
            [
                -0.0140228271484375
            ]
        ],
        [
            [
                0.0145721435546875
            ],
            [
                0.015472412109375
            ]
        ],
        [
            [
                0.01425933837890625
            ],
            [
                -0.01351165771484375
            ]
        ],
        [
            [
                -0.01450347900390625
            ],
            [
                -0.0159759521484375
            ]
        ],
        [
            [
                -0.01361083984375
            ],
            [
                0.01483917236328125
            ]
        ],
        [
            [
                -0.01447296142578125
            ],
            [
                0.01418304443359375
            ]
        ],
        [
            [
                -0.015106201171875
            ],
            [
                0.0139923095703125
            ]
        ],
        [
            [
                -0.014068603515625
            ],
            [
                0.01320648193359375
            ]
        ],
        [
            [
                -0.0155181884765625
            ],
            [
                0.01560211181640625
            ]
        ],
        [
            [
                -0.0155792236328125
            ],
            [
                -0.0147247314453125
            ]
        ],
        [
            [
                0.0147247314453125
            ],
            [
                0.0133209228515625
            ]
        ],
        [
            [
                0.01415252685546875
            ],
            [
                0.0130615234375
            ]
        ],
        [
            [
                -0.01419830322265625
            ],
            [
                -0.014251708984375
            ]
        ],
        [
            [
                -0.0134124755859375
            ],
            [
                0.01519775390625
            ]
        ],
        [
            [
                0.01476287841796875
            ],
            [
                0.0138092041015625
            ]
        ],
        [
            [
                -0.0151824951171875
            ],
            [
                0.01494598388671875
            ]
        ],
        [
            [
                0.015106201171875
            ],
            [
                0.01279449462890625
            ]
        ]
    ],
    "symmetric_weights_decompressor_o_proj_weight_0": [
        [
            [
                0.015625
            ],
            [
                0.014495849609375
            ]
        ],
        [
            [
                -0.01404571533203125
            ],
            [
                -0.0152130126953125
            ]
        ],
        [
            [
                -0.01512908935546875
            ],
            [
                0.0160369873046875
            ]
        ],
        [
            [
                0.01451873779296875
            ],
            [
                -0.0155181884765625
            ]
        ],
        [
            [
                -0.01464080810546875
            ],
            [
                -0.0139007568359375
            ]
        ],
        [
            [
                -0.0123138427734375
            ],
            [
                0.01412200927734375
            ]
        ],
        [
            [
                -0.01317596435546875
            ],
            [
                0.0151824951171875
            ]
        ],
        [
            [
                -0.01235198974609375
            ],
            [
                -0.0142059326171875
            ]
        ],
        [
            [
                -0.0145263671875
            ],
            [
                -0.0148162841796875
            ]
        ],
        [
            [
                0.01427459716796875
            ],
            [
                -0.01490020751953125
            ]
        ],
        [
            [
                0.01490020751953125
            ],
            [
                0.01303863525390625
            ]
        ],
        [
            [
                0.0155029296875
            ],
            [
                -0.013946533203125
            ]
        ],
        [
            [
                0.01409149169921875
            ],
            [
                -0.01322174072265625
            ]
        ],
        [
            [
                0.013427734375
            ],
            [
                0.0127716064453125
            ]
        ],
        [
            [
                0.0142669677734375
            ],
            [
                0.01432037353515625
            ]
        ],
        [
            [
                -0.01528167724609375
            ],
            [
                0.01529693603515625
            ]
        ],
        [
            [
                0.01393890380859375
            ],
            [
                -0.01446533203125
            ]
        ],
        [
            [
                -0.01214599609375
            ],
            [
                -0.01450347900390625
            ]
        ],
        [
            [
                0.013275146484375
            ],
            [
                -0.01328277587890625
            ]
        ],
        [
            [
                -0.01528167724609375
            ],
            [
                -0.01406097412109375
            ]
        ],
        [
            [
                -0.01247406005859375
            ],
            [
                -0.0160064697265625
            ]
        ],
        [
            [
                -0.01490020751953125
            ],
            [
                -0.01470184326171875
            ]
        ],
        [
            [
                -0.01491546630859375
            ],
            [
                -0.013702392578125
            ]
        ],
        [
            [
                -0.0145721435546875
            ],
            [
                0.01506805419921875
            ]
        ],
        [
            [
                -0.0150146484375
            ],
            [
                0.015380859375
            ]
        ],
        [
            [
                -0.0146484375
            ],
            [
                0.013946533203125
            ]
        ],
        [
            [
                0.0121917724609375
            ],
            [
                0.01367950439453125
            ]
        ],
        [
            [
                -0.01552581787109375
            ],
            [
                -0.015228271484375
            ]
        ],
        [
            [
                0.0135650634765625
            ],
            [
                -0.01288604736328125
            ]
        ],
        [
            [
                -0.015869140625
            ],
            [
                0.01409912109375
            ]
        ],
        [
            [
                -0.013946533203125
            ],
            [
                -0.0148162841796875
            ]
        ],
        [
            [
                0.01346588134765625
            ],
            [
                -0.015533447265625
            ]
        ],
        [
            [
                0.01334381103515625
            ],
            [
                -0.0154571533203125
            ]
        ],
        [
            [
                -0.01387786865234375
            ],
            [
                -0.0156707763671875
            ]
        ],
        [
            [
                0.0160675048828125
            ],
            [
                -0.0134429931640625
            ]
        ],
        [
            [
                0.0123748779296875
            ],
            [
                -0.01427459716796875
            ]
        ],
        [
            [
                -0.0137939453125
            ],
            [
                0.01299285888671875
            ]
        ],
        [
            [
                -0.015289306640625
            ],
            [
                -0.01548004150390625
            ]
        ],
        [
            [
                0.0142059326171875
            ],
            [
                0.0158233642578125
            ]
        ],
        [
            [
                -0.01528167724609375
            ],
            [
                -0.013824462890625
            ]
        ],
        [
            [
                -0.01453399658203125
            ],
            [
                -0.0151519775390625
            ]
        ],
        [
            [
                -0.01526641845703125
            ],
            [
                0.0164337158203125
            ]
        ],
        [
            [
                0.01546478271484375
            ],
            [
                -0.01494598388671875
            ]
        ],
        [
            [
                -0.01458740234375
            ],
            [
                -0.01313018798828125
            ]
        ],
        [
            [
                -0.0141448974609375
            ],
            [
                -0.0145721435546875
            ]
        ],
        [
            [
                -0.0144500732421875
            ],
            [
                -0.012664794921875
            ]
        ],
        [
            [
                0.0151824951171875
            ],
            [
                0.0142822265625
            ]
        ],
        [
            [
                0.01434326171875
            ],
            [
                -0.0160675048828125
            ]
        ],
        [
            [
                0.01505279541015625
            ],
            [
                -0.0137939453125
            ]
        ],
        [
            [
                0.01270294189453125
            ],
            [
                -0.0133056640625
            ]
        ],
        [
            [
                -0.01343536376953125
            ],
            [
                -0.01441192626953125
            ]
        ],
        [
            [
                0.0150146484375
            ],
            [
                0.01453399658203125
            ]
        ],
        [
            [
                -0.016143798828125
            ],
            [
                -0.01445770263671875
            ]
        ],
        [
            [
                -0.0134735107421875
            ],
            [
                0.01480865478515625
            ]
        ],
        [
            [
                -0.0162506103515625
            ],
            [
                0.0152130126953125
            ]
        ],
        [
            [
                -0.01522064208984375
            ],
            [
                -0.01541900634765625
            ]
        ],
        [
            [
                -0.01448822021484375
            ],
            [
                0.01557159423828125
            ]
        ],
        [
            [
                -0.01395416259765625
            ],
            [
                0.01319122314453125
            ]
        ],
        [
            [
                -0.0153350830078125
            ],
            [
                -0.01532745361328125
            ]
        ],
        [
            [
                0.016265869140625
            ],
            [
                -0.0161285400390625
            ]
        ],
        [
            [
                -0.0131988525390625
            ],
            [
                0.015350341796875
            ]
        ],
        [
            [
                0.0146331787109375
            ],
            [
                -0.01483917236328125
            ]
        ],
        [
            [
                -0.01554107666015625
            ],
            [
                -0.01318359375
            ]
        ],
        [
            [
                0.0138092041015625
            ],
            [
                0.01560211181640625
            ]
        ]
    ],
    "asymmetric_weights_decompressor_mlp_gate_proj_weight_0": [
        [
            0.0009555816650390625
        ],
        [
            0.0009636878967285156
        ],
        [
            0.00091552734375
        ],
        [
            0.0009512901306152344
        ],
        [
            0.000949859619140625
        ],
        [
            0.0009474754333496094
        ],
        [
            0.0009431838989257812
        ],
        [
            0.0009655952453613281
        ],
        [
            0.0009593963623046875
        ],
        [
            0.0009489059448242188
        ],
        [
            0.0009398460388183594
        ],
        [
            0.0009694099426269531
        ],
        [
            0.0009374618530273438
        ],
        [
            0.0009660720825195312
        ],
        [
            0.0009570121765136719
        ],
        [
            0.0009589195251464844
        ],
        [
            0.0009474754333496094
        ],
        [
            0.0009517669677734375
        ],
        [
            0.000942230224609375
        ],
        [
            0.0009703636169433594
        ],
        [
            0.0009679794311523438
        ],
        [
            0.0009641647338867188
        ],
        [
            0.0009756088256835938
        ],
        [
            0.0009708404541015625
        ],
        [
            0.0009584426879882812
        ],
        [
            0.0009531974792480469
        ],
        [
            0.0009489059448242188
        ],
        [
            0.0009632110595703125
        ],
        [
            0.0009751319885253906
        ],
        [
            0.0009646415710449219
        ],
        [
            0.0009503364562988281
        ],
        [
            0.0009660720825195312
        ],
        [
            0.0009450912475585938
        ],
        [
            0.0009551048278808594
        ],
        [
            0.0009632110595703125
        ],
        [
            0.00096893310546875
        ],
        [
            0.00087738037109375
        ],
        [
            0.0009603500366210938
        ],
        [
            0.0009393692016601562
        ],
        [
            0.0009708404541015625
        ],
        [
            0.0009555816650390625
        ],
        [
            0.0009717941284179688
        ],
        [
            0.0009641647338867188
        ],
        [
            0.0009632110595703125
        ],
        [
            0.000972747802734375
        ],
        [
            0.0009322166442871094
        ],
        [
            0.0009684562683105469
        ],
        [
            0.0009617805480957031
        ],
        [
            0.0009284019470214844
        ],
        [
            0.0009598731994628906
        ],
        [
            0.0009293556213378906
        ],
        [
            0.00092315673828125
        ],
        [
            0.0008797645568847656
        ],
        [
            0.0009746551513671875
        ],
        [
            0.0009598731994628906
        ],
        [
            0.0009226799011230469
        ],
        [
            0.0009679794311523438
        ],
        [
            0.0009741783142089844
        ],
        [
            0.0009684562683105469
        ],
        [
            0.0009245872497558594
        ],
        [
            0.0009694099426269531
        ],
        [
            0.0009393692016601562
        ],
        [
            0.0009298324584960938
        ],
        [
            0.0009636878967285156
        ],
        [
            0.0009665489196777344
        ],
        [
            0.0009307861328125
        ],
        [
            0.0009489059448242188
        ],
        [
            0.0009760856628417969
        ],
        [
            0.0009551048278808594
        ],
        [
            0.0008802413940429688
        ],
        [
            0.000965118408203125
        ],
        [
            0.0009632110595703125
        ],
        [
            0.0009469985961914062
        ],
        [
            0.00095367431640625
        ],
        [
            0.0009508132934570312
        ],
        [
            0.0009350776672363281
        ],
        [
            0.0009427070617675781
        ],
        [
            0.0009551048278808594
        ],
        [
            0.0009765625
        ],
        [
            0.0009560585021972656
        ],
        [
            0.0009598731994628906
        ],
        [
            0.0009636878967285156
        ],
        [
            0.0009670257568359375
        ],
        [
            0.0009546279907226562
        ],
        [
            0.0009646415710449219
        ],
        [
            0.0009703636169433594
        ],
        [
            0.0009655952453613281
        ],
        [
            0.0009274482727050781
        ],
        [
            0.0009093284606933594
        ],
        [
            0.0009398460388183594
        ],
        [
            0.0009493827819824219
        ],
        [
            0.0009708404541015625
        ],
        [
            0.0009756088256835938
        ],
        [
            0.0009412765502929688
        ],
        [
            0.0009632110595703125
        ],
        [
            0.0009260177612304688
        ],
        [
            0.0009589195251464844
        ],
        [
            0.0009484291076660156
        ],
        [
            0.000957489013671875
        ],
        [
            0.0009765625
        ],
        [
            0.0009641647338867188
        ],
        [
            0.000965118408203125
        ],
        [
            0.00095367431640625
        ],
        [
            0.0009660720825195312
        ],
        [
            0.0009703636169433594
        ],
        [
            0.000949859619140625
        ],
        [
            0.0009622573852539062
        ],
        [
            0.0009489059448242188
        ],
        [
            0.0009655952453613281
        ],
        [
            0.0009379386901855469
        ],
        [
            0.0009436607360839844
        ],
        [
            0.0009646415710449219
        ],
        [
            0.0009708404541015625
        ],
        [
            0.0009355545043945312
        ],
        [
            0.0009694099426269531
        ],
        [
            0.000942230224609375
        ],
        [
            0.0009441375732421875
        ],
        [
            0.0009751319885253906
        ],
        [
            0.000957489013671875
        ],
        [
            0.0009441375732421875
        ],
        [
            0.0009717941284179688
        ],
        [
            0.0009450912475585938
        ],
        [
            0.0009703636169433594
        ],
        [
            0.0009417533874511719
        ],
        [
            0.0009288787841796875
        ],
        [
            0.0009655952453613281
        ],
        [
            0.0009655952453613281
        ],
        [
            0.0009632110595703125
        ]
    ],
    "asymmetric_weights_decompressor_mlp_up_proj_weight_updated_constant0_0": [
        [
            0.0009670257568359375
        ],
        [
            0.0009627342224121094
        ],
        [
            0.0009636878967285156
        ],
        [
            0.0009675025939941406
        ],
        [
            0.0009679794311523438
        ],
        [
            0.00096893310546875
        ],
        [
            0.0009675025939941406
        ],
        [
            0.0009493827819824219
        ],
        [
            0.00096893310546875
        ],
        [
            0.0009484291076660156
        ],
        [
            0.000949859619140625
        ],
        [
            0.0009398460388183594
        ],
        [
            0.0009174346923828125
        ],
        [
            0.0009679794311523438
        ],
        [
            0.0009403228759765625
        ],
        [
            0.0009741783142089844
        ],
        [
            0.0008835792541503906
        ],
        [
            0.0009450912475585938
        ],
        [
            0.0009484291076660156
        ],
        [
            0.0009655952453613281
        ],
        [
            0.0009579658508300781
        ],
        [
            0.00091552734375
        ],
        [
            0.0009326934814453125
        ],
        [
            0.0009489059448242188
        ],
        [
            0.0009627342224121094
        ],
        [
            0.0009765625
        ],
        [
            0.0009531974792480469
        ],
        [
            0.0009503364562988281
        ],
        [
            0.0009765625
        ],
        [
            0.0009579658508300781
        ],
        [
            0.0009169578552246094
        ],
        [
            0.0009493827819824219
        ],
        [
            0.0009450912475585938
        ],
        [
            0.0009741783142089844
        ],
        [
            0.0009379386901855469
        ],
        [
            0.0009403228759765625
        ],
        [
            0.00092315673828125
        ],
        [
            0.0009717941284179688
        ],
        [
            0.000911712646484375
        ],
        [
            0.0009722709655761719
        ],
        [
            0.0009360313415527344
        ],
        [
            0.0009765625
        ],
        [
            0.000972747802734375
        ],
        [
            0.0009288787841796875
        ],
        [
            0.0009722709655761719
        ],
        [
            0.0009121894836425781
        ],
        [
            0.0009512901306152344
        ],
        [
            0.0009007453918457031
        ],
        [
            0.0009570121765136719
        ],
        [
            0.0009136199951171875
        ],
        [
            0.0009436607360839844
        ],
        [
            0.0009584426879882812
        ],
        [
            0.0009655952453613281
        ],
        [
            0.0009465217590332031
        ],
        [
            0.0009765625
        ],
        [
            0.0009484291076660156
        ],
        [
            0.0009670257568359375
        ],
        [
            0.0009775161743164062
        ],
        [
            0.0009627342224121094
        ],
        [
            0.0009360313415527344
        ],
        [
            0.0009546279907226562
        ],
        [
            0.0009737014770507812
        ],
        [
            0.0009717941284179688
        ],
        [
            0.0009551048278808594
        ],
        [
            0.0009722709655761719
        ],
        [
            0.0009765625
        ],
        [
            0.0008749961853027344
        ],
        [
            0.0009751319885253906
        ],
        [
            0.0009322166442871094
        ],
        [
            0.0009546279907226562
        ],
        [
            0.0009331703186035156
        ],
        [
            0.000965118408203125
        ],
        [
            0.0009756088256835938
        ],
        [
            0.0009636878967285156
        ],
        [
            0.000965118408203125
        ],
        [
            0.0009760856628417969
        ],
        [
            0.0009546279907226562
        ],
        [
            0.0009207725524902344
        ],
        [
            0.0009741783142089844
        ],
        [
            0.0009436607360839844
        ],
        [
            0.0009217262268066406
        ],
        [
            0.0009722709655761719
        ],
        [
            0.0009579658508300781
        ],
        [
            0.000965118408203125
        ],
        [
            0.0009684562683105469
        ],
        [
            0.0009641647338867188
        ],
        [
            0.0009579658508300781
        ],
        [
            0.0009617805480957031
        ],
        [
            0.0009646415710449219
        ],
        [
            0.0009684562683105469
        ],
        [
            0.0009202957153320312
        ],
        [
            0.0009560585021972656
        ],
        [
            0.0009617805480957031
        ],
        [
            0.0009784698486328125
        ],
        [
            0.00089263916015625
        ],
        [
            0.0009698867797851562
        ],
        [
            0.0013704299926757812
        ],
        [
            0.00206756591796875
        ],
        [
            0.0013513565063476562
        ],
        [
            0.00225830078125
        ],
        [
            0.0021381378173828125
        ],
        [
            0.0024662017822265625
        ],
        [
            0.0025844573974609375
        ],
        [
            0.0015583038330078125
        ],
        [
            0.0023174285888671875
        ],
        [
            0.0025119781494140625
        ],
        [
            0.002399444580078125
        ],
        [
            0.0020198822021484375
        ],
        [
            0.00145721435546875
        ],
        [
            0.0021514892578125
        ],
        [
            0.0019207000732421875
        ],
        [
            0.0019245147705078125
        ],
        [
            0.0016422271728515625
        ],
        [
            0.00133514404296875
        ],
        [
            0.0024929046630859375
        ],
        [
            0.0015106201171875
        ],
        [
            0.0017309188842773438
        ],
        [
            0.0017538070678710938
        ],
        [
            0.00246429443359375
        ],
        [
            0.0012035369873046875
        ],
        [
            0.002346038818359375
        ],
        [
            0.0008511543273925781
        ],
        [
            0.001300811767578125
        ],
        [
            0.0024204254150390625
        ],
        [
            0.002277374267578125
        ],
        [
            0.00124359130859375
        ],
        [
            0.0018281936645507812
        ],
        [
            0.0013427734375
        ]
    ],
    "symmetric_weights_decompressor_mlp_down_proj_weight_updated_constant0_0": [
        [
            [
                -0.01129150390625
            ],
            [
                0.01030731201171875
            ],
            [
                -0.0095977783203125
            ],
            [
                -0.00717926025390625
            ]
        ],
        [
            [
                -0.0103607177734375
            ],
            [
                0.010406494140625
            ],
            [
                0.010711669921875
            ],
            [
                -0.00701904296875
            ]
        ],
        [
            [
                -0.0098419189453125
            ],
            [
                0.01096343994140625
            ],
            [
                -0.01012420654296875
            ],
            [
                0.00954437255859375
            ]
        ],
        [
            [
                0.0105133056640625
            ],
            [
                0.01090240478515625
            ],
            [
                -0.010833740234375
            ],
            [
                -0.00818634033203125
            ]
        ],
        [
            [
                0.01097869873046875
            ],
            [
                0.0105438232421875
            ],
            [
                -0.01099395751953125
            ],
            [
                -0.00856781005859375
            ]
        ],
        [
            [
                0.0101318359375
            ],
            [
                0.0116119384765625
            ],
            [
                0.00989532470703125
            ],
            [
                0.01172637939453125
            ]
        ],
        [
            [
                -0.00850677490234375
            ],
            [
                0.0114288330078125
            ],
            [
                0.01036834716796875
            ],
            [
                0.0076446533203125
            ]
        ],
        [
            [
                -0.0112457275390625
            ],
            [
                -0.0092315673828125
            ],
            [
                0.00942230224609375
            ],
            [
                0.007320404052734375
            ]
        ],
        [
            [
                0.0104522705078125
            ],
            [
                -0.00957489013671875
            ],
            [
                -0.01071929931640625
            ],
            [
                -0.00634002685546875
            ]
        ],
        [
            [
                -0.0102996826171875
            ],
            [
                0.01103973388671875
            ],
            [
                -0.009124755859375
            ],
            [
                -0.00803375244140625
            ]
        ],
        [
            [
                -0.0095367431640625
            ],
            [
                0.00888824462890625
            ],
            [
                0.01154327392578125
            ],
            [
                0.00800323486328125
            ]
        ],
        [
            [
                0.009674072265625
            ],
            [
                -0.0116119384765625
            ],
            [
                0.0104522705078125
            ],
            [
                0.00786590576171875
            ]
        ],
        [
            [
                0.0091705322265625
            ],
            [
                0.00913238525390625
            ],
            [
                -0.01096343994140625
            ],
            [
                -0.007678985595703125
            ]
        ],
        [
            [
                0.01239013671875
            ],
            [
                0.009857177734375
            ],
            [
                0.01012420654296875
            ],
            [
                -0.007171630859375
            ]
        ],
        [
            [
                0.01021575927734375
            ],
            [
                0.00972747802734375
            ],
            [
                -0.01096343994140625
            ],
            [
                0.00801849365234375
            ]
        ],
        [
            [
                -0.01032257080078125
            ],
            [
                -0.01013946533203125
            ],
            [
                -0.01071929931640625
            ],
            [
                -0.0102691650390625
            ]
        ],
        [
            [
                -0.0106964111328125
            ],
            [
                0.00943756103515625
            ],
            [
                0.01076507568359375
            ],
            [
                0.00707244873046875
            ]
        ],
        [
            [
                -0.0108795166015625
            ],
            [
                -0.010406494140625
            ],
            [
                0.0109710693359375
            ],
            [
                0.00952911376953125
            ]
        ],
        [
            [
                -0.009552001953125
            ],
            [
                0.01085662841796875
            ],
            [
                -0.00939178466796875
            ],
            [
                -0.01177215576171875
            ]
        ],
        [
            [
                -0.0090179443359375
            ],
            [
                0.00785064697265625
            ],
            [
                0.00989532470703125
            ],
            [
                0.0099334716796875
            ]
        ],
        [
            [
                0.0109100341796875
            ],
            [
                -0.01056671142578125
            ],
            [
                0.0117950439453125
            ],
            [
                0.0103607177734375
            ]
        ],
        [
            [
                0.01050567626953125
            ],
            [
                -0.0103912353515625
            ],
            [
                0.01074981689453125
            ],
            [
                0.007213592529296875
            ]
        ],
        [
            [
                -0.009979248046875
            ],
            [
                -0.01123046875
            ],
            [
                -0.0108489990234375
            ],
            [
                -0.00695037841796875
            ]
        ],
        [
            [
                -0.01064300537109375
            ],
            [
                -0.01023101806640625
            ],
            [
                0.00847625732421875
            ],
            [
                0.00609588623046875
            ]
        ],
        [
            [
                -0.0100250244140625
            ],
            [
                0.0110015869140625
            ],
            [
                -0.009124755859375
            ],
            [
                -0.007610321044921875
            ]
        ],
        [
            [
                0.01087188720703125
            ],
            [
                0.01104736328125
            ],
            [
                0.01092529296875
            ],
            [
                0.008697509765625
            ]
        ],
        [
            [
                -0.0101470947265625
            ],
            [
                0.0101318359375
            ],
            [
                -0.01070404052734375
            ],
            [
                -0.007740020751953125
            ]
        ],
        [
            [
                0.010467529296875
            ],
            [
                -0.01071929931640625
            ],
            [
                -0.01088714599609375
            ],
            [
                0.00823974609375
            ]
        ],
        [
            [
                0.0109710693359375
            ],
            [
                0.01070404052734375
            ],
            [
                -0.0088653564453125
            ],
            [
                -0.0120391845703125
            ]
        ],
        [
            [
                -0.0101470947265625
            ],
            [
                0.01103973388671875
            ],
            [
                -0.01092529296875
            ],
            [
                0.00841522216796875
            ]
        ],
        [
            [
                -0.00984954833984375
            ],
            [
                0.00902557373046875
            ],
            [
                0.01081085205078125
            ],
            [
                -0.0115203857421875
            ]
        ],
        [
            [
                0.01021575927734375
            ],
            [
                -0.0107421875
            ],
            [
                0.01123809814453125
            ],
            [
                0.00835418701171875
            ]
        ],
        [
            [
                0.01099395751953125
            ],
            [
                -0.0100250244140625
            ],
            [
                0.01085662841796875
            ],
            [
                0.006694793701171875
            ]
        ],
        [
            [
                0.00936126708984375
            ],
            [
                0.01097869873046875
            ],
            [
                0.01055908203125
            ],
            [
                0.00826263427734375
            ]
        ],
        [
            [
                0.01218414306640625
            ],
            [
                -0.01041412353515625
            ],
            [
                -0.01038360595703125
            ],
            [
                0.00843048095703125
            ]
        ],
        [
            [
                -0.01076507568359375
            ],
            [
                -0.0114593505859375
            ],
            [
                0.00991058349609375
            ],
            [
                -0.0055389404296875
            ]
        ],
        [
            [
                -0.0111236572265625
            ],
            [
                -0.0110015869140625
            ],
            [
                0.0101776123046875
            ],
            [
                0.00720977783203125
            ]
        ],
        [
            [
                -0.00986480712890625
            ],
            [
                0.01038360595703125
            ],
            [
                -0.01102447509765625
            ],
            [
                0.00872802734375
            ]
        ],
        [
            [
                -0.01039886474609375
            ],
            [
                -0.00897216796875
            ],
            [
                0.01068115234375
            ],
            [
                -0.006473541259765625
            ]
        ],
        [
            [
                -0.01056671142578125
            ],
            [
                0.0096588134765625
            ],
            [
                0.0109100341796875
            ],
            [
                0.00579071044921875
            ]
        ],
        [
            [
                -0.009613037109375
            ],
            [
                -0.0108489990234375
            ],
            [
                0.0097198486328125
            ],
            [
                -0.006763458251953125
            ]
        ],
        [
            [
                0.0100555419921875
            ],
            [
                -0.00954437255859375
            ],
            [
                -0.009185791015625
            ],
            [
                0.006927490234375
            ]
        ],
        [
            [
                -0.01076507568359375
            ],
            [
                -0.010528564453125
            ],
            [
                0.0106048583984375
            ],
            [
                -0.007671356201171875
            ]
        ],
        [
            [
                -0.01036834716796875
            ],
            [
                -0.01068115234375
            ],
            [
                -0.01056671142578125
            ],
            [
                -0.009033203125
            ]
        ],
        [
            [
                -0.01070404052734375
            ],
            [
                0.01039886474609375
            ],
            [
                -0.00970458984375
            ],
            [
                -0.005916595458984375
            ]
        ],
        [
            [
                0.00968170166015625
            ],
            [
                -0.010589599609375
            ],
            [
                0.00940704345703125
            ],
            [
                -0.00543212890625
            ]
        ],
        [
            [
                -0.01090240478515625
            ],
            [
                -0.010345458984375
            ],
            [
                0.01006317138671875
            ],
            [
                0.00695037841796875
            ]
        ],
        [
            [
                0.00974273681640625
            ],
            [
                -0.0087432861328125
            ],
            [
                -0.009857177734375
            ],
            [
                -0.006603240966796875
            ]
        ],
        [
            [
                0.00936126708984375
            ],
            [
                0.010711669921875
            ],
            [
                0.0103912353515625
            ],
            [
                0.006847381591796875
            ]
        ],
        [
            [
                0.00975799560546875
            ],
            [
                -0.01107025146484375
            ],
            [
                -0.01073455810546875
            ],
            [
                -0.0077362060546875
            ]
        ],
        [
            [
                0.009185791015625
            ],
            [
                -0.01050567626953125
            ],
            [
                0.0096588134765625
            ],
            [
                0.00775909423828125
            ]
        ],
        [
            [
                0.00922393798828125
            ],
            [
                0.00940704345703125
            ],
            [
                0.00949859619140625
            ],
            [
                0.005893707275390625
            ]
        ],
        [
            [
                0.01010894775390625
            ],
            [
                -0.0094757080078125
            ],
            [
                0.00902557373046875
            ],
            [
                -0.00682830810546875
            ]
        ],
        [
            [
                -0.00994873046875
            ],
            [
                0.010467529296875
            ],
            [
                -0.00936126708984375
            ],
            [
                -0.006427764892578125
            ]
        ],
        [
            [
                -0.01031494140625
            ],
            [
                0.01061248779296875
            ],
            [
                -0.0096893310546875
            ],
            [
                -0.0110626220703125
            ]
        ],
        [
            [
                -0.00983428955078125
            ],
            [
                -0.01062774658203125
            ],
            [
                0.0115203857421875
            ],
            [
                0.006656646728515625
            ]
        ],
        [
            [
                -0.0110015869140625
            ],
            [
                -0.00907135009765625
            ],
            [
                -0.0113067626953125
            ],
            [
                0.0066680908203125
            ]
        ],
        [
            [
                0.00891876220703125
            ],
            [
                0.01165008544921875
            ],
            [
                0.00977325439453125
            ],
            [
                0.00894927978515625
            ]
        ],
        [
            [
                -0.01136016845703125
            ],
            [
                0.01145172119140625
            ],
            [
                -0.010955810546875
            ],
            [
                0.010772705078125
            ]
        ],
        [
            [
                -0.010711669921875
            ],
            [
                0.010772705078125
            ],
            [
                0.01076507568359375
            ],
            [
                -0.006195068359375
            ]
        ],
        [
            [
                0.00940704345703125
            ],
            [
                -0.01081085205078125
            ],
            [
                0.00977325439453125
            ],
            [
                -0.00846099853515625
            ]
        ],
        [
            [
                -0.01116943359375
            ],
            [
                0.00909423828125
            ],
            [
                -0.01003265380859375
            ],
            [
                -0.0112762451171875
            ]
        ],
        [
            [
                -0.010650634765625
            ],
            [
                -0.0108489990234375
            ],
            [
                0.0111541748046875
            ],
            [
                0.01007843017578125
            ]
        ],
        [
            [
                -0.00910186767578125
            ],
            [
                -0.010528564453125
            ],
            [
                0.0102691650390625
            ],
            [
                -0.005126953125
            ]
        ]
    ]
}