{
    "symmetric_weights_decompressor_wte_weight_0": [
        [
            [
                -0.290283203125
            ],
            [
                -0.283447265625
            ]
        ],
        [
            [
                0.313720703125
            ],
            [
                -0.50439453125
            ]
        ],
        [
            [
                0.28662109375
            ],
            [
                -0.263916015625
            ]
        ],
        [
            [
                0.255859375
            ],
            [
                0.1998291015625
            ]
        ],
        [
            [
                -0.271240234375
            ],
            [
                -0.319580078125
            ]
        ],
        [
            [
                -0.3564453125
            ],
            [
                0.31103515625
            ]
        ],
        [
            [
                0.3388671875
            ],
            [
                -0.2958984375
            ]
        ],
        [
            [
                -0.2027587890625
            ],
            [
                0.32080078125
            ]
        ],
        [
            [
                -0.2509765625
            ],
            [
                -0.423095703125
            ]
        ],
        [
            [
                -0.290771484375
            ],
            [
                0.337646484375
            ]
        ],
        [
            [
                0.34912109375
            ],
            [
                -0.3125
            ]
        ],
        [
            [
                0.286865234375
            ],
            [
                0.3876953125
            ]
        ],
        [
            [
                0.373046875
            ],
            [
                0.2486572265625
            ]
        ],
        [
            [
                0.295166015625
            ],
            [
                -0.238525390625
            ]
        ],
        [
            [
                -0.28857421875
            ],
            [
                0.2283935546875
            ]
        ],
        [
            [
                0.28564453125
            ],
            [
                0.2127685546875
            ]
        ],
        [
            [
                -0.35009765625
            ],
            [
                -0.275634765625
            ]
        ],
        [
            [
                -0.3984375
            ],
            [
                -0.3095703125
            ]
        ],
        [
            [
                0.28564453125
            ],
            [
                0.31591796875
            ]
        ],
        [
            [
                -0.351318359375
            ],
            [
                -0.304931640625
            ]
        ],
        [
            [
                -0.316650390625
            ],
            [
                -0.35595703125
            ]
        ],
        [
            [
                -0.3603515625
            ],
            [
                -0.2188720703125
            ]
        ],
        [
            [
                -0.233642578125
            ],
            [
                0.303466796875
            ]
        ],
        [
            [
                0.27685546875
            ],
            [
                -0.26318359375
            ]
        ],
        [
            [
                0.271240234375
            ],
            [
                0.2080078125
            ]
        ],
        [
            [
                0.30126953125
            ],
            [
                0.26171875
            ]
        ],
        [
            [
                0.3359375
            ],
            [
                -0.393798828125
            ]
        ],
        [
            [
                0.326904296875
            ],
            [
                -0.316650390625
            ]
        ],
        [
            [
                -0.2403564453125
            ],
            [
                -0.2607421875
            ]
        ],
        [
            [
                0.2646484375
            ],
            [
                -0.249267578125
            ]
        ],
        [
            [
                0.47900390625
            ],
            [
                0.36181640625
            ]
        ],
        [
            [
                0.25048828125
            ],
            [
                0.3310546875
            ]
        ],
        [
            [
                -0.25830078125
            ],
            [
                0.25634765625
            ]
        ],
        [
            [
                -0.349365234375
            ],
            [
                -0.290283203125
            ]
        ],
        [
            [
                0.269287109375
            ],
            [
                0.38134765625
            ]
        ],
        [
            [
                -0.274169921875
            ],
            [
                -0.253662109375
            ]
        ],
        [
            [
                -0.251953125
            ],
            [
                0.302490234375
            ]
        ],
        [
            [
                0.2353515625
            ],
            [
                -0.262939453125
            ]
        ],
        [
            [
                -0.268310546875
            ],
            [
                0.3466796875
            ]
        ],
        [
            [
                -0.39892578125
            ],
            [
                -0.27734375
            ]
        ],
        [
            [
                0.2763671875
            ],
            [
                -0.308349609375
            ]
        ],
        [
            [
                -0.254638671875
            ],
            [
                -0.31689453125
            ]
        ],
        [
            [
                -0.36572265625
            ],
            [
                0.453857421875
            ]
        ],
        [
            [
                -0.2156982421875
            ],
            [
                0.290283203125
            ]
        ],
        [
            [
                0.34716796875
            ],
            [
                0.346923828125
            ]
        ],
        [
            [
                0.235595703125
            ],
            [
                -0.266357421875
            ]
        ],
        [
            [
                -0.2052001953125
            ],
            [
                -0.253173828125
            ]
        ],
        [
            [
                -0.259765625
            ],
            [
                0.339111328125
            ]
        ],
        [
            [
                0.259521484375
            ],
            [
                0.25537109375
            ]
        ],
        [
            [
                -0.3212890625
            ],
            [
                -0.283935546875
            ]
        ],
        [
            [
                0.2685546875
            ],
            [
                -0.314453125
            ]
        ],
        [
            [
                0.2138671875
            ],
            [
                0.378662109375
            ]
        ],
        [
            [
                0.256591796875
            ],
            [
                -0.311279296875
            ]
        ],
        [
            [
                -0.272216796875
            ],
            [
                0.302490234375
            ]
        ],
        [
            [
                -0.330078125
            ],
            [
                0.22216796875
            ]
        ],
        [
            [
                -0.241943359375
            ],
            [
                -0.442626953125
            ]
        ],
        [
            [
                -0.33740234375
            ],
            [
                0.235107421875
            ]
        ],
        [
            [
                0.320068359375
            ],
            [
                -0.275146484375
            ]
        ],
        [
            [
                -0.338623046875
            ],
            [
                0.3076171875
            ]
        ],
        [
            [
                0.256591796875
            ],
            [
                0.2252197265625
            ]
        ],
        [
            [
                0.34765625
            ],
            [
                -0.29541015625
            ]
        ],
        [
            [
                -0.306396484375
            ],
            [
                0.353271484375
            ]
        ],
        [
            [
                0.309326171875
            ],
            [
                -0.231201171875
            ]
        ],
        [
            [
                0.290283203125
            ],
            [
                -0.2315673828125
            ]
        ],
        [
            [
                0.263671875
            ],
            [
                -0.26025390625
            ]
        ],
        [
            [
                0.320556640625
            ],
            [
                0.212890625
            ]
        ],
        [
            [
                0.341796875
            ],
            [
                0.2548828125
            ]
        ],
        [
            [
                -0.302001953125
            ],
            [
                -0.3212890625
            ]
        ],
        [
            [
                -0.1842041015625
            ],
            [
                0.28271484375
            ]
        ],
        [
            [
                -0.2568359375
            ],
            [
                0.26318359375
            ]
        ],
        [
            [
                -0.2091064453125
            ],
            [
                0.304443359375
            ]
        ],
        [
            [
                -0.2381591796875
            ],
            [
                0.319580078125
            ]
        ],
        [
            [
                0.264892578125
            ],
            [
                0.252197265625
            ]
        ],
        [
            [
                -0.271728515625
            ],
            [
                0.42333984375
            ]
        ],
        [
            [
                -0.2264404296875
            ],
            [
                -0.36376953125
            ]
        ],
        [
            [
                -0.296875
            ],
            [
                0.30419921875
            ]
        ],
        [
            [
                0.268798828125
            ],
            [
                -0.276123046875
            ]
        ],
        [
            [
                0.2763671875
            ],
            [
                0.330810546875
            ]
        ],
        [
            [
                0.314453125
            ],
            [
                -0.29541015625
            ]
        ],
        [
            [
                -0.19921875
            ],
            [
                0.2685546875
            ]
        ],
        [
            [
                0.32763671875
            ],
            [
                -0.323486328125
            ]
        ],
        [
            [
                -0.3369140625
            ],
            [
                0.322265625
            ]
        ],
        [
            [
                0.32763671875
            ],
            [
                0.293212890625
            ]
        ],
        [
            [
                0.2374267578125
            ],
            [
                0.3037109375
            ]
        ],
        [
            [
                -0.295166015625
            ],
            [
                0.2978515625
            ]
        ],
        [
            [
                -0.306396484375
            ],
            [
                -0.25634765625
            ]
        ],
        [
            [
                0.314697265625
            ],
            [
                -0.36962890625
            ]
        ],
        [
            [
                0.2705078125
            ],
            [
                0.290283203125
            ]
        ],
        [
            [
                -0.2493896484375
            ],
            [
                -0.263427734375
            ]
        ],
        [
            [
                -0.359619140625
            ],
            [
                0.2587890625
            ]
        ],
        [
            [
                -0.23583984375
            ],
            [
                -0.348388671875
            ]
        ],
        [
            [
                -0.2421875
            ],
            [
                -0.436767578125
            ]
        ],
        [
            [
                -0.349365234375
            ],
            [
                0.26220703125
            ]
        ],
        [
            [
                0.25732421875
            ],
            [
                0.314697265625
            ]
        ],
        [
            [
                0.21728515625
            ],
            [
                0.338134765625
            ]
        ],
        [
            [
                0.301025390625
            ],
            [
                -0.2666015625
            ]
        ],
        [
            [
                0.314697265625
            ],
            [
                -0.32421875
            ]
        ],
        [
            [
                0.260986328125
            ],
            [
                0.262939453125
            ]
        ],
        [
            [
                0.2110595703125
            ],
            [
                -0.28759765625
            ]
        ],
        [
            [
                0.339599609375
            ],
            [
                0.359375
            ]
        ],
        [
            [
                -0.289306640625
            ],
            [
                0.279296875
            ]
        ],
        [
            [
                -0.330810546875
            ],
            [
                0.395263671875
            ]
        ],
        [
            [
                0.271240234375
            ],
            [
                -0.32373046875
            ]
        ],
        [
            [
                0.32568359375
            ],
            [
                -0.3037109375
            ]
        ],
        [
            [
                0.387939453125
            ],
            [
                0.3095703125
            ]
        ],
        [
            [
                0.325927734375
            ],
            [
                -0.314697265625
            ]
        ],
        [
            [
                -0.30615234375
            ],
            [
                -0.346923828125
            ]
        ],
        [
            [
                -0.330322265625
            ],
            [
                -0.28369140625
            ]
        ],
        [
            [
                0.373046875
            ],
            [
                0.251708984375
            ]
        ],
        [
            [
                0.259033203125
            ],
            [
                -0.284912109375
            ]
        ],
        [
            [
                0.2054443359375
            ],
            [
                0.29931640625
            ]
        ],
        [
            [
                -0.259033203125
            ],
            [
                0.304443359375
            ]
        ],
        [
            [
                -0.268310546875
            ],
            [
                0.2294921875
            ]
        ],
        [
            [
                0.27392578125
            ],
            [
                0.312744140625
            ]
        ],
        [
            [
                0.2205810546875
            ],
            [
                -0.31884765625
            ]
        ],
        [
            [
                0.286865234375
            ],
            [
                -0.21923828125
            ]
        ],
        [
            [
                0.2305908203125
            ],
            [
                -0.2103271484375
            ]
        ],
        [
            [
                -0.292236328125
            ],
            [
                -0.2314453125
            ]
        ],
        [
            [
                -0.300537109375
            ],
            [
                -0.32080078125
            ]
        ],
        [
            [
                0.292236328125
            ],
            [
                0.2412109375
            ]
        ],
        [
            [
                -0.30126953125
            ],
            [
                0.29443359375
            ]
        ],
        [
            [
                0.277587890625
            ],
            [
                -0.27880859375
            ]
        ],
        [
            [
                0.26318359375
            ],
            [
                0.280029296875
            ]
        ],
        [
            [
                -0.32763671875
            ],
            [
                -0.272216796875
            ]
        ],
        [
            [
                0.272705078125
            ],
            [
                -0.38623046875
            ]
        ],
        [
            [
                -0.249267578125
            ],
            [
                0.4208984375
            ]
        ],
        [
            [
                0.290283203125
            ],
            [
                0.34765625
            ]
        ],
        [
            [
                -0.284912109375
            ],
            [
                -0.34326171875
            ]
        ]
    ],
    "asymmetric_weights_decompressor_linear_weight_0": [
        [
            0.0009713172912597656
        ],
        [
            0.0009407997131347656
        ],
        [
            0.000934600830078125
        ],
        [
            0.0009560585021972656
        ],
        [
            0.00090789794921875
        ],
        [
            0.0009722709655761719
        ],
        [
            0.0009274482727050781
        ],
        [
            0.000965118408203125
        ],
        [
            0.0009703636169433594
        ],
        [
            0.0009093284606933594
        ],
        [
            0.0009679794311523438
        ],
        [
            0.0009703636169433594
        ],
        [
            0.0009374618530273438
        ],
        [
            0.0009684562683105469
        ],
        [
            0.0009655952453613281
        ],
        [
            0.0009140968322753906
        ],
        [
            0.0009531974792480469
        ],
        [
            0.000965118408203125
        ],
        [
            0.0009226799011230469
        ],
        [
            0.0009655952453613281
        ],
        [
            0.0009160041809082031
        ],
        [
            0.0009560585021972656
        ],
        [
            0.0009713172912597656
        ],
        [
            0.000942230224609375
        ],
        [
            0.0009527206420898438
        ],
        [
            0.0009603500366210938
        ],
        [
            0.0009722709655761719
        ],
        [
            0.0009450912475585938
        ],
        [
            0.0009388923645019531
        ],
        [
            0.0009670257568359375
        ],
        [
            0.00095367431640625
        ],
        [
            0.0009665489196777344
        ],
        [
            0.00096893310546875
        ],
        [
            0.0009512901306152344
        ],
        [
            0.0009665489196777344
        ],
        [
            0.000934600830078125
        ],
        [
            0.0009379386901855469
        ],
        [
            0.0009522438049316406
        ],
        [
            0.0009431838989257812
        ],
        [
            0.0009765625
        ],
        [
            0.0009579658508300781
        ],
        [
            0.0009608268737792969
        ],
        [
            0.0009489059448242188
        ],
        [
            0.0009694099426269531
        ],
        [
            0.0009603500366210938
        ],
        [
            0.0009665489196777344
        ],
        [
            0.0009260177612304688
        ],
        [
            0.0009684562683105469
        ],
        [
            0.0009188652038574219
        ],
        [
            0.0009365081787109375
        ],
        [
            0.00095367431640625
        ],
        [
            0.0009708404541015625
        ],
        [
            0.0009398460388183594
        ],
        [
            0.0009655952453613281
        ],
        [
            0.0009446144104003906
        ],
        [
            0.000965118408203125
        ],
        [
            0.0009717941284179688
        ],
        [
            0.0009593963623046875
        ],
        [
            0.0009503364562988281
        ],
        [
            0.0009560585021972656
        ],
        [
            0.0009608268737792969
        ],
        [
            0.0009760856628417969
        ],
        [
            0.0009722709655761719
        ],
        [
            0.0008978843688964844
        ]
    ]
}